{"learner":{"attributes":{},"feature_names":["h2h_home_win_rate","h2h_draw_rate","h2h_away_win_rate","home_form_index","away_form_index","urgency_score","volatility_index","injury_impact","fatigue_level","weather_impact","home_edge","h2h_sample_size","home_recent5_scored_rate","away_recent5_scored_rate","home_recent5_goal_diff","away_recent5_goal_diff","home_recent5_opponent_strength","away_recent5_opponent_strength"],"feature_types":[],"gradient_booster":{"model":{"gbtree_model_param":{"num_parallel_tree":"1","num_trees":"1980"},"iteration_indptr":[0,9,18,27,36,45,54,63,72,81,90,99,108,117,126,135,144,153,162,171,180,189,198,207,216,225,234,243,252,261,270,279,288,297,306,315,324,333,342,351,360,369,378,387,396,405,414,423,432,441,450,459,468,477,486,495,504,513,522,531,540,549,558,567,576,585,594,603,612,621,630,639,648,657,666,675,684,693,702,711,720,729,738,747,756,765,774,783,792,801,810,819,828,837,846,855,864,873,882,891,900,909,918,927,936,945,954,963,972,981,990,999,1008,1017,1026,1035,1044,1053,1062,1071,1080,1089,1098,1107,1116,1125,1134,1143,1152,1161,1170,1179,1188,1197,1206,1215,1224,1233,1242,1251,1260,1269,1278,1287,1296,1305,1314,1323,1332,1341,1350,1359,1368,1377,1386,1395,1404,1413,1422,1431,1440,1449,1458,1467,1476,1485,1494,1503,1512,1521,1530,1539,1548,1557,1566,1575,1584,1593,1602,1611,1620,1629,1638,1647,1656,1665,1674,1683,1692,1701,1710,1719,1728,1737,1746,1755,1764,1773,1782,1791,1800,1809,1818,1827,1836,1845,1854,1863,1872,1881,1890,1899,1908,1917,1926,1935,1944,1953,1962,1971,1980],"tree_info":[0,1,2,3,4,5,6,7,8,0,1,2,3,4,5,6,7,8,0,1,2,3,4,5,6,7,8,0,1,2,3,4,5,6,7,8,0,1,2,3,4,5,6,7,8,0,1,2,3,4,5,6,7,8,0,1,2,3,4,5,6,7,8,0,1,2,3,4,5,6,7,8,0,1,2,3,4,5,6,7,8,0,1,2,3,4,5,6,7,8,0,1,2,3,4,5,6,7,8,0,1,2,3,4,5,6,7,8,0,1,2,3,4,5,6,7,8,0,1,2,3,4,5,6,7,8,0,1,2,3,4,5,6,7,8,0,1,2,3,4,5,6,7,8,0,1,2,3,4,5,6,7,8,0,1,2,3,4,5,6,7,8,0,1,2,3,4,5,6,7,8,0,1,2,3,4,5,6,7,8,0,1,2,3,4,5,6,7,8,0,1,2,3,4,5,6,7,8,0,1,2,3,4,5,6,7,8,0,1,2,3,4,5,6,7,8,0,1,2,3,4,5,6,7,8,0,1,2,3,4,5,6,7,8,0,1,2,3,4,5,6,7,8,0,1,2,3,4,5,6,7,8,0,1,2,3,4,5,6,7,8,0,1,2,3,4,5,6,7,8,0,1,2,3,4,5,6,7,8,0,1,2,3,4,5,6,7,8,0,1,2,3,4,5,6,7,8,0,1,2,3,4,5,6,7,8,0,1,2,3,4,5,6,7,8,0,1,2,3,4,5,6,7,8,0,1,2,3,4,5,6,7,8,0,1,2,3,4,5,6,7,8,0,1,2,3,4,5,6,7,8,0,1,2,3,4,5,6,7,8,0,1,2,3,4,5,6,7,8,0,1,2,3,4,5,6,7,8,0,1,2,3,4,5,6,7,8,0,1,2,3,4,5,6,7,8,0,1,2,3,4,5,6,7,8,0,1,2,3,4,5,6,7,8,0,1,2,3,4,5,6,7,8,0,1,2,3,4,5,6,7,8,0,1,2,3,4,5,6,7,8,0,1,2,3,4,5,6,7,8,0,1,2,3,4,5,6,7,8,0,1,2,3,4,5,6,7,8,0,1,2,3,4,5,6,7,8,0,1,2,3,4,5,6,7,8,0,1,2,3,4,5,6,7,8,0,1,2,3,4,5,6,7,8,0,1,2,3,4,5,6,7,8,0,1,2,3,4,5,6,7,8,0,1,2,3,4,5,6,7,8,0,1,2,3,4,5,6,7,8,0,1,2,3,4,5,6,7,8,0,1,2,3,4,5,6,7,8,0,1,2,3,4,5,6,7,8,0,1,2,3,4,5,6,7,8,0,1,2,3,4,5,6,7,8,0,1,2,3,4,5,6,7,8,0,1,2,3,4,5,6,7,8,0,1,2,3,4,5,6,7,8,0,1,2,3,4,5,6,7,8,0,1,2,3,4,5,6,7,8,0,1,2,3,4,5,6,7,8,0,1,2,3,4,5,6,7,8,0,1,2,3,4,5,6,7,8,0,1,2,3,4,5,6,7,8,0,1,2,3,4,5,6,7,8,0,1,2,3,4,5,6,7,8,0,1,2,3,4,5,6,7,8,0,1,2,3,4,5,6,7,8,0,1,2,3,4,5,6,7,8,0,1,2,3,4,5,6,7,8,0,1,2,3,4,5,6,7,8,0,1,2,3,4,5,6,7,8,0,1,2,3,4,5,6,7,8,0,1,2,3,4,5,6,7,8,0,1,2,3,4,5,6,7,8,0,1,2,3,4,5,6,7,8,0,1,2,3,4,5,6,7,8,0,1,2,3,4,5,6,7,8,0,1,2,3,4,5,6,7,8,0,1,2,3,4,5,6,7,8,0,1,2,3,4,5,6,7,8,0,1,2,3,4,5,6,7,8,0,1,2,3,4,5,6,7,8,0,1,2,3,4,5,6,7,8,0,1,2,3,4,5,6,7,8,0,1,2,3,4,5,6,7,8,0,1,2,3,4,5,6,7,8,0,1,2,3,4,5,6,7,8,0,1,2,3,4,5,6,7,8,0,1,2,3,4,5,6,7,8,0,1,2,3,4,5,6,7,8,0,1,2,3,4,5,6,7,8,0,1,2,3,4,5,6,7,8,0,1,2,3,4,5,6,7,8,0,1,2,3,4,5,6,7,8,0,1,2,3,4,5,6,7,8,0,1,2,3,4,5,6,7,8,0,1,2,3,4,5,6,7,8,0,1,2,3,4,5,6,7,8,0,1,2,3,4,5,6,7,8,0,1,2,3,4,5,6,7,8,0,1,2,3,4,5,6,7,8,0,1,2,3,4,5,6,7,8,0,1,2,3,4,5,6,7,8,0,1,2,3,4,5,6,7,8,0,1,2,3,4,5,6,7,8,0,1,2,3,4,5,6,7,8,0,1,2,3,4,5,6,7,8,0,1,2,3,4,5,6,7,8,0,1,2,3,4,5,6,7,8,0,1,2,3,4,5,6,7,8,0,1,2,3,4,5,6,7,8,0,1,2,3,4,5,6,7,8,0,1,2,3,4,5,6,7,8,0,1,2,3,4,5,6,7,8,0,1,2,3,4,5,6,7,8,0,1,2,3,4,5,6,7,8,0,1,2,3,4,5,6,7,8,0,1,2,3,4,5,6,7,8,0,1,2,3,4,5,6,7,8,0,1,2,3,4,5,6,7,8,0,1,2,3,4,5,6,7,8,0,1,2,3,4,5,6,7,8,0,1,2,3,4,5,6,7,8,0,1,2,3,4,5,6,7,8,0,1,2,3,4,5,6,7,8,0,1,2,3,4,5,6,7,8,0,1,2,3,4,5,6,7,8,0,1,2,3,4,5,6,7,8,0,1,2,3,4,5,6,7,8,0,1,2,3,4,5,6,7,8,0,1,2,3,4,5,6,7,8,0,1,2,3,4,5,6,7,8,0,1,2,3,4,5,6,7,8,0,1,2,3,4,5,6,7,8,0,1,2,3,4,5,6,7,8,0,1,2,3,4,5,6,7,8,0,1,2,3,4,5,6,7,8,0,1,2,3,4,5,6,7,8,0,1,2,3,4,5,6,7,8,0,1,2,3,4,5,6,7,8,0,1,2,3,4,5,6,7,8,0,1,2,3,4,5,6,7,8,0,1,2,3,4,5,6,7,8,0,1,2,3,4,5,6,7,8,0,1,2,3,4,5,6,7,8,0,1,2,3,4,5,6,7,8,0,1,2,3,4,5,6,7,8,0,1,2,3,4,5,6,7,8,0,1,2,3,4,5,6,7,8,0,1,2,3,4,5,6,7,8,0,1,2,3,4,5,6,7,8,0,1,2,3,4,5,6,7,8,0,1,2,3,4,5,6,7,8,0,1,2,3,4,5,6,7,8,0,1,2,3,4,5,6,7,8,0,1,2,3,4,5,6,7,8,0,1,2,3,4,5,6,7,8,0,1,2,3,4,5,6,7,8,0,1,2,3,4,5,6,7,8,0,1,2,3,4,5,6,7,8,0,1,2,3,4,5,6,7,8,0,1,2,3,4,5,6,7,8,0,1,2,3,4,5,6,7,8,0,1,2,3,4,5,6,7,8,0,1,2,3,4,5,6,7,8,0,1,2,3,4,5,6,7,8,0,1,2,3,4,5,6,7,8,0,1,2,3,4,5,6,7,8,0,1,2,3,4,5,6,7,8,0,1,2,3,4,5,6,7,8,0,1,2,3,4,5,6,7,8,0,1,2,3,4,5,6,7,8,0,1,2,3,4,5,6,7,8,0,1,2,3,4,5,6,7,8,0,1,2,3,4,5,6,7,8,0,1,2,3,4,5,6,7,8,0,1,2,3,4,5,6,7,8,0,1,2,3,4,5,6,7,8,0,1,2,3,4,5,6,7,8,0,1,2,3,4,5,6,7,8,0,1,2,3,4,5,6,7,8,0,1,2,3,4,5,6,7,8,0,1,2,3,4,5,6,7,8,0,1,2,3,4,5,6,7,8,0,1,2,3,4,5,6,7,8,0,1,2,3,4,5,6,7,8,0,1,2,3,4,5,6,7,8,0,1,2,3,4,5,6,7,8,0,1,2,3,4,5,6,7,8,0,1,2,3,4,5,6,7,8,0,1,2,3,4,5,6,7,8,0,1,2,3,4,5,6,7,8,0,1,2,3,4,5,6,7,8,0,1,2,3,4,5,6,7,8,0,1,2,3,4,5,6,7,8,0,1,2,3,4,5,6,7,8,0,1,2,3,4,5,6,7,8,0,1,2,3,4,5,6,7,8,0,1,2,3,4,5,6,7,8,0,1,2,3,4,5,6,7,8,0,1,2,3,4,5,6,7,8,0,1,2,3,4,5,6,7,8,0,1,2,3,4,5,6,7,8,0,1,2,3,4,5,6,7,8,0,1,2,3,4,5,6,7,8,0,1,2,3,4,5,6,7,8,0,1,2,3,4,5,6,7,8,0,1,2,3,4,5,6,7,8,0,1,2,3,4,5,6,7,8],"trees":[{"base_weights":[8.592485E-3,-2.808795E-2,1.4411176E0,2.2313288E-1,-2.7971083E-2],"categories":[],"categories_nodes":[],"categories_segments":[],"categories_sizes":[],"default_left":[0,0,0,0,0],"id":0,"left_children":[1,-1,3,-1,-1],"loss_changes":[8.671675E2,0E0,1.8294165E3,0E0,0E0],"parents":[2147483647,0,0,2,2],"right_children":[2,-1,4,-1,-1],"split_conditions":[2.1904649E-1,-2.808795E-2,4.5015523E-1,2.2313288E-1,-2.7971083E-2],"split_indices":[10,0,6,0,0],"split_type":[0,0,0,0,0],"sum_hessian":[1.059358E3,7.581235E2,3.0123456E2,1.1950617E2,1.817284E2],"tree_param":{"num_deleted":"0","num_feature":"18","num_nodes":"5","size_leaf_vector":"1"}},{"base_weights":[-5.6197244E-1],"categories":[],"categories_nodes":[],"categories_segments":[],"categories_sizes":[],"default_left":[0],"id":1,"left_children":[-1],"loss_changes":[0E0],"parents":[2147483647],"right_children":[-1],"split_conditions":[-2.8098622E-2],"split_indices":[0],"split_type":[0],"sum_hessian":[1.0652839E3],"tree_param":{"num_deleted":"0","num_feature":"18","num_nodes":"1","size_leaf_vector":"1"}},{"base_weights":[-5.6197304E-1],"categories":[],"categories_nodes":[],"categories_segments":[],"categories_sizes":[],"default_left":[0],"id":2,"left_children":[-1],"loss_changes":[0E0],"parents":[2147483647],"right_children":[-1],"split_conditions":[-2.8098652E-2],"split_indices":[0],"split_type":[0],"sum_hessian":[1.0664691E3],"tree_param":{"num_deleted":"0","num_feature":"18","num_nodes":"1","size_leaf_vector":"1"}},{"base_weights":[1.3820197E-1,-2.808462E-2,1.4504837E0,3.2990243E0,-2.7967682E-2,1.8889109E0,3.9371328E0,2.0948732E-1,7.042336E-1,4.340608E0,2.4054613E0,-6.318007E-2,1.9726028E-1,2.1932636E-1,7.5291835E-2,8.3982366E-1,2.0540898E-1,6.436931E-2,-2.70708E-2,-7.1295435E-3,1.7560975E-1],"categories":[],"categories_nodes":[],"categories_segments":[],"categories_sizes":[],"default_left":[0,0,0,0,0,0,0,0,0,0,0,0,0,0,0,0,0,0,0,0,0],"id":3,"left_children":[1,-1,3,5,-1,7,9,-1,11,13,15,17,-1,-1,-1,19,-1,-1,-1,-1,-1],"loss_changes":[9.806967E2,0E0,1.3815851E3,1.667583E2,0E0,1.6668521E2,7.135547E1,0E0,1.0541647E2,6.869385E0,7.609721E1,2.3414776E1,0E0,0E0,0E0,4.4613617E1,0E0,0E0,0E0,0E0,0E0],"parents":[2147483647,0,0,2,2,3,3,5,5,6,6,8,8,9,9,10,10,11,11,15,15],"right_children":[2,-1,4,6,-1,8,10,-1,12,14,16,18,-1,-1,-1,20,-1,-1,-1,-1,-1],"split_conditions":[7.2039247E-1,-2.808462E-2,5.5110896E-1,4.2785904E-1,-2.7967682E-2,5.254556E-1,7.556839E-1,2.0948732E-1,4.5015523E-1,7.569818E-1,6.3271195E-1,6.2404895E-1,1.9726028E-1,2.1932636E-1,7.5291835E-2,4.4653955E-1,2.0540898E-1,6.436931E-2,-2.70708E-2,-7.1295435E-3,1.7560975E-1],"split_indices":[5,0,6,4,0,3,3,0,6,0,4,3,0,0,0,6,0,0,0,0,0],"split_type":[0,0,0,0,0,0,0,0,0,0,0,0,0,0,0,0,0,0,0,0,0],"sum_hessian":[1.0658766E3,6.9550616E2,3.7037036E2,1.9259259E2,1.7777779E2,6.123457E1,1.3135803E2,1.9950617E1,4.128395E1,1.0251852E2,2.8839506E1,3.417284E1,7.111111E0,1.0034568E2,2.1728396E0,1.5802469E1,1.3037037E1,8.493827E0,2.5679012E1,1.2246914E1,3.5555556E0],"tree_param":{"num_deleted":"0","num_feature":"18","num_nodes":"21","size_leaf_vector":"1"}},{"base_weights":[1.1314679E0,1.8904587E0,-2.8039744E-2,-5.450416E-1,2.4949317E0,-2.7929438E-2,8.411215E-2,3.4659743E0,7.7475864E-1,3.0508474E-2,-1.8000001E-2,2.2364925E-1,1.6604081E0,-5.4618347E-1,2.1847756E-1,-2.7754271E-2,4.377545E0,-2.7944556E-2,3.0508474E-2,2.2125386E-1,5.338983E-2],"categories":[],"categories_nodes":[],"categories_segments":[],"categories_sizes":[],"default_left":[0,0,0,0,0,0,0,0,0,0,0,0,0,0,0,0,0,0,0,0,0],"id":4,"left_children":[1,3,-1,5,7,-1,9,11,13,-1,-1,-1,15,17,-1,-1,19,-1,-1,-1,-1],"loss_changes":[1.3662946E3,1.0820049E3,0E0,1.2980003E0,9.799204E2,0E0,1.145522E0,6.757095E2,1.01639935E3,0E0,0E0,0E0,8.217915E2,2.648777E0,0E0,0E0,4.9102783E0,0E0,0E0,0E0,0E0],"parents":[2147483647,0,0,1,1,3,3,4,4,6,6,7,7,8,8,12,12,13,13,16,16],"right_children":[2,4,-1,6,8,-1,10,12,14,-1,-1,-1,16,18,-1,-1,20,-1,-1,-1,-1],"split_conditions":[7.213937E-1,-1.489136E-1,-2.8039744E-2,-1.5181403E-1,7.2039247E-1,-2.7929438E-2,5.3472245E-1,2.1904649E-1,5.5110896E-1,3.0508474E-2,-1.8000001E-2,2.2364925E-1,4.5015523E-1,5.4653215E-1,2.1847756E-1,-2.7754271E-2,7.18086E-1,-2.7944556E-2,3.0508474E-2,2.2125386E-1,5.338983E-2],"split_indices":[6,10,0,10,5,0,5,10,6,0,0,0,6,6,0,0,6,0,0,0,0],"split_type":[0,0,0,0,0,0,0,0,0,0,0,0,0,0,0,0,0,0,0,0,0],"sum_hessian":[1.0619259E3,7.3303705E2,3.288889E2,1.4577779E2,5.872593E2,1.4281482E2,2.962963E0,3.7471606E2,2.1254321E2,1.1851852E0,1.7777778E0,2.3960493E2,1.3511111E2,1.5604938E2,5.6493828E1,7.48642E1,6.0246914E1,1.548642E2,1.1851852E0,5.906173E1,1.1851852E0],"tree_param":{"num_deleted":"0","num_feature":"18","num_nodes":"21","size_leaf_vector":"1"}},{"base_weights":[1.0111341E0,-5.508788E-1,2.2431998E-1,-2.8086632E-2,1.238961E0,1.08E-1,-1.86722E-3],"categories":[],"categories_nodes":[],"categories_segments":[],"categories_sizes":[],"default_left":[0,0,0,0,0,0,0],"id":5,"left_children":[1,3,-1,-1,5,-1,-1],"loss_changes":[5.792842E3,1.50095215E1,0E0,0E0,5.668046E0,0E0,0E0],"parents":[2147483647,0,0,1,1,4,4],"right_children":[2,4,-1,-1,6,-1,-1],"split_conditions":[7.213937E-1,7.18086E-1,2.2431998E-1,-2.8086632E-2,2.8192103E-1,1.08E-1,-1.86722E-3],"split_indices":[6,6,0,0,9,0,0],"split_type":[0,0,0,0,0,0,0],"sum_hessian":[1.0656791E3,7.358025E2,3.2987656E2,7.320494E2,3.7530866E0,1.7777778E0,1.9753087E0],"tree_param":{"num_deleted":"0","num_feature":"18","num_nodes":"7","size_leaf_vector":"1"}},{"base_weights":[-8.162202E-2,5.32502E-1,-4.7831306E-1,-4.5565623E-1,1.5302716E0,-5.328045E-1,8.859405E-2,-5.278592E-1,1.6621402E-1,2.4983122E0,-2.7705071E-2,-2.8071513E-2,-2.9872057E-1,1.5393896E0,-5.246637E-1,-2.795591E-2,-2.9032257E-1,1.6998314E0,-2.6410837E-2,3.6175141E0,5.685958E-1,1.8947369E0,-5.206612E-1,2.799092E0,-2.4384236E-2,7.6271184E-3,-2.7423823E-2,8.780488E-1,-2.6756758E-2,2.4253898E0,-1.8000001E-2,1.7573965E0,4.0505376E0,-2.7413309E-2,3.4683647E0,1.5042494E-1,-1.86722E-2,1.978022E-1,-2.7647305E-2,1.8060708E-1,8.780488E-1,8.860104E-2,-3.5019454E-3,1.5042494E-1,7.6271184E-3,1.8367347E-1,-2.5162548E-2,2.1970777E-1,1.5121458E-1,2.0353357E-1,8.5189305E-2,3.0508474E-2,-1.5254237E-2,-1.978022E-2,1.22033894E-1],"categories":[],"categories_nodes":[],"categories_segments":[],"categories_sizes":[],"default_left":[0,0,0,0,0,0,0,0,0,0,0,0,0,0,0,0,0,0,0,0,0,0,0,0,0,0,0,0,0,0,0,0,0,0,0,0,0,0,0,0,0,0,0,0,0,0,0,0,0,0,0,0,0,0,0],"id":6,"left_children":[1,3,5,7,9,11,13,15,17,19,-1,-1,21,23,25,-1,27,29,-1,31,33,35,37,39,-1,-1,-1,41,-1,43,-1,45,47,-1,49,-1,-1,51,-1,-1,53,-1,-1,-1,-1,-1,-1,-1,-1,-1,-1,-1,-1,-1,-1],"loss_changes":[2.599239E2,4.1359305E2,2.0068405E1,9.569584E0,4.222985E2,3.795288E0,5.2136337E1,1.2443314E0,2.5103415E1,3.0598633E2,0E0,0E0,3.339893E1,4.578354E1,7.4961567E-1,0E0,7.3664236E0,1.181456E1,0E0,6.544409E1,1.7530887E2,1.7122854E1,1.5300312E0,1.3816475E1,0E0,0E0,0E0,3.985233E0,0E0,6.8875885E0,0E0,8.318585E1,1.2209351E1,0E0,9.032944E0,0E0,0E0,8.8508105E-1,0E0,0E0,1.0032227E1,0E0,0E0,0E0,0E0,0E0,0E0,0E0,0E0,0E0,0E0,0E0,0E0,0E0,0E0],"parents":[2147483647,0,0,1,1,2,2,3,3,4,4,5,5,6,6,7,7,8,8,9,9,12,12,13,13,14,14,16,16,17,17,19,19,20,20,21,21,22,22,23,23,27,27,29,29,31,31,32,32,34,34,37,37,40,40],"right_children":[2,4,6,8,10,12,14,16,18,20,-1,-1,22,24,26,-1,28,30,-1,32,34,36,38,40,-1,-1,-1,42,-1,44,-1,46,48,-1,50,-1,-1,52,-1,-1,54,-1,-1,-1,-1,-1,-1,-1,-1,-1,-1,-1,-1,-1,-1],"split_conditions":[5.4144025E-1,5.361821E-1,7.719729E-1,5.053819E-1,7.213937E-1,7.1431524E-1,6.426811E-1,4.7577998E-1,3.7240797E-1,7.2039247E-1,-2.7705071E-2,-2.8071513E-2,5.814062E-1,7.18086E-1,2.2099359E-2,-2.795591E-2,3.406325E-1,7.234731E-1,-2.6410837E-2,5.936585E-1,5.5110896E-1,6.251125E-1,5.9570116E-1,6.9759697E-1,-2.4384236E-2,7.6271184E-3,-2.7423823E-2,5.3472245E-1,-2.6756758E-2,6.181509E-1,-1.8000001E-2,4.2119947E-1,4.7457036E-1,-2.7413309E-2,4.7457036E-1,1.5042494E-1,-1.86722E-2,1.5249465E-1,-2.7647305E-2,1.8060708E-1,5.3068215E-1,8.860104E-2,-3.5019454E-3,1.5042494E-1,7.6271184E-3,1.8367347E-1,-2.5162548E-2,2.1970777E-1,1.5121458E-1,2.0353357E-1,8.5189305E-2,3.0508474E-2,-1.5254237E-2,-1.978022E-2,1.22033894E-1],"split_indices":[3,4,4,4,6,4,3,4,3,5,0,0,3,6,8,0,3,5,0,4,6,5,3,5,0,0,0,5,0,6,0,3,3,0,3,0,0,1,0,0,6,0,0,0,0,0,0,0,0,0,0,0,0,0,0],"split_type":[0,0,0,0,0,0,0,0,0,0,0,0,0,0,0,0,0,0,0,0,0,0,0,0,0,0,0,0,0,0,0,0,0,0,0,0,0,0,0,0,0,0,0,0,0,0,0,0,0,0,0,0,0,0,0],"sum_hessian":[1.0648889E3,4.1777777E2,6.4711115E2,2.1017284E2,2.0760493E2,5.9041974E2,5.6691357E1,1.8844444E2,2.1728395E1,1.4162962E2,6.597531E1,5.2483954E2,6.5580246E1,1.6395061E1,4.0296295E1,1.6533333E2,2.311111E1,6.3209877E0,1.5407408E1,8.908642E1,5.254321E1,5.3333335E0,6.0246914E1,9.876543E0,6.5185184E0,1.1851852E0,3.911111E1,3.5555556E0,1.9555555E1,4.54321E0,1.7777778E0,1.7777779E1,7.130864E1,3.851852E1,1.4024692E1,3.3580246E0,1.9753087E0,2.3703704E0,5.7876545E1,6.3209877E0,3.5555556E0,1.3827161E0,2.1728396E0,3.3580246E0,1.1851852E0,9.283951E0,8.493827E0,5.0962963E1,2.0345678E1,9.481482E0,4.54321E0,1.1851852E0,1.1851852E0,2.3703704E0,1.1851852E0],"tree_param":{"num_deleted":"0","num_feature":"18","num_nodes":"55","size_leaf_vector":"1"}},{"base_weights":[-5.6197613E-1],"categories":[],"categories_nodes":[],"categories_segments":[],"categories_sizes":[],"default_left":[0],"id":7,"left_children":[-1],"loss_changes":[0E0],"parents":[2147483647],"right_children":[-1],"split_conditions":[-2.8098807E-2],"split_indices":[0],"split_type":[0],"sum_hessian":[1.0727902E3],"tree_param":{"num_deleted":"0","num_feature":"18","num_nodes":"1","size_leaf_vector":"1"}},{"base_weights":[-5.619756E-1],"categories":[],"categories_nodes":[],"categories_segments":[],"categories_sizes":[],"default_left":[0],"id":8,"left_children":[-1],"loss_changes":[0E0],"parents":[2147483647],"right_children":[-1],"split_conditions":[-2.809878E-2],"split_indices":[0],"split_type":[0],"sum_hessian":[1.071605E3],"tree_param":{"num_deleted":"0","num_feature":"18","num_nodes":"1","size_leaf_vector":"1"}},{"base_weights":[-6.429575E-3,-2.7981618E-2,1.2808661E0,1.7952996E-1,-2.7862398E-2],"categories":[],"categories_nodes":[],"categories_segments":[],"categories_sizes":[],"default_left":[0,0,0,0,0],"id":9,"left_children":[1,-1,3,-1,-1],"loss_changes":[7.588846E2,0E0,1.3618735E3,0E0,0E0],"parents":[2147483647,0,0,2,2],"right_children":[2,-1,4,-1,-1],"split_conditions":[2.1904649E-1,-2.7981618E-2,4.5015523E-1,1.7952996E-1,-2.7862398E-2],"split_indices":[10,0,6,0,0],"split_type":[0,0,0,0,0],"sum_hessian":[1.0636396E3,7.443344E2,3.193052E2,1.4107726E2,1.7822794E2],"tree_param":{"num_deleted":"0","num_feature":"18","num_nodes":"5","size_leaf_vector":"1"}},{"base_weights":[-5.598266E-1],"categories":[],"categories_nodes":[],"categories_segments":[],"categories_sizes":[],"default_left":[0],"id":10,"left_children":[-1],"loss_changes":[0E0],"parents":[2147483647],"right_children":[-1],"split_conditions":[-2.799133E-2],"split_indices":[0],"split_type":[0],"sum_hessian":[1.0327458E3],"tree_param":{"num_deleted":"0","num_feature":"18","num_nodes":"1","size_leaf_vector":"1"}},{"base_weights":[-5.5982894E-1],"categories":[],"categories_nodes":[],"categories_segments":[],"categories_sizes":[],"default_left":[0],"id":11,"left_children":[-1],"loss_changes":[0E0],"parents":[2147483647],"right_children":[-1],"split_conditions":[-2.7991448E-2],"split_indices":[0],"split_type":[0],"sum_hessian":[1.0369764E3],"tree_param":{"num_deleted":"0","num_feature":"18","num_nodes":"1","size_leaf_vector":"1"}},{"base_weights":[1.3945852E-1,-2.797682E-2,1.3413249E0,2.804073E0,-2.7856184E-2,1.8110971E-1,4.36789E-1,-2.749191E-2,1.7253533E-1],"categories":[],"categories_nodes":[],"categories_segments":[],"categories_sizes":[],"default_left":[0,0,0,0,0,0,0,0,0],"id":12,"left_children":[1,-1,3,5,-1,-1,7,-1,-1],"loss_changes":[9.01226E2,0E0,1.0969248E3,4.302207E2,0E0,0E0,1.7555519E2,0E0,0E0],"parents":[2147483647,0,0,2,2,3,3,6,6],"right_children":[2,-1,4,6,-1,-1,8,-1,-1],"split_conditions":[7.2039247E-1,-2.797682E-2,5.5110896E-1,2.1904649E-1,-2.7856184E-2,1.8110971E-1,4.5015523E-1,-2.749191E-2,1.7253533E-1],"split_indices":[5,0,6,10,0,0,6,0,0],"split_type":[0,0,0,0,0,0,0,0,0],"sum_hessian":[1.070869E3,6.7742126E2,3.9344778E2,2.2195511E2,1.7149269E2,1.6455548E2,5.7399616E1,4.3859474E1,1.3540142E1],"tree_param":{"num_deleted":"0","num_feature":"18","num_nodes":"9","size_leaf_vector":"1"}},{"base_weights":[1.0432398E0,1.7033014E0,-2.793142E-2,-5.353538E-1,2.179959E0,-2.7825108E-2,2.5273544E-1,1.3477867E0,3.188757E0,6.0525693E-2,-1.9744715E-2,2.2542343E0,-5.2214414E-1,2.4628475E0,3.563311E0,1.7130786E0,2.3383272E0,-2.7775958E-2,6.905769E-2,2.509519E0,6.096823E-1,1.799703E-1,1.2937493E0,9.7437024E-2,4.8422683E-2,7.337509E-3,1.17514946E-1,1.2981623E-1,7.5088084E-2,-1.6100522E-2,6.1682362E-2,8.866938E-2,4.5593395E-3],"categories":[],"categories_nodes":[],"categories_segments":[],"categories_sizes":[],"default_left":[0,0,0,0,0,0,0,0,0,0,0,0,0,0,0,0,0,0,0,0,0,0,0,0,0,0,0,0,0,0,0,0,0],"id":13,"left_children":[1,3,-1,5,7,-1,9,11,13,-1,-1,15,17,19,21,23,25,-1,-1,27,29,-1,31,-1,-1,-1,-1,-1,-1,-1,-1,-1,-1],"loss_changes":[1.1916912E3,8.524651E2,0E0,2.488163E0,5.480371E2,0E0,3.187819E0,6.152108E2,7.1887695E1,0E0,0E0,7.105957E0,8.331886E0,7.4835205E0,1.1191406E1,4.5318756E0,5.128174E0,0E0,0E0,4.965515E0,2.6534767E0,0E0,2.4856186E0,0E0,0E0,0E0,0E0,0E0,0E0,0E0,0E0,0E0,0E0],"parents":[2147483647,0,0,1,1,3,3,4,4,6,6,7,7,8,8,11,11,12,12,13,13,14,14,15,15,16,16,19,19,20,20,22,22],"right_children":[2,4,-1,6,8,-1,10,12,14,-1,-1,16,18,20,22,24,26,-1,-1,28,30,-1,32,-1,-1,-1,-1,-1,-1,-1,-1,-1,-1],"split_conditions":[7.213937E-1,-1.489136E-1,-2.793142E-2,-1.5181403E-1,4.5351905E-1,-2.7825108E-2,3.8890463E-1,2.1904649E-1,5.5110896E-1,6.0525693E-2,-1.9744715E-2,2.1531995E-1,4.5015523E-1,5.260725E-1,7.18086E-1,1.8476915E-1,-1.4528696E-1,-2.7775958E-2,6.905769E-2,9.493527E-1,4.595814E-1,1.799703E-1,7.5855845E-1,9.7437024E-2,4.8422683E-2,7.337509E-3,1.17514946E-1,1.2981623E-1,7.5088084E-2,-1.6100522E-2,6.1682362E-2,8.866938E-2,4.5593395E-3],"split_indices":[6,10,0,10,6,0,16,10,6,0,0,15,6,10,6,15,10,0,0,12,14,0,12,0,0,0,0,0,0,0,0,0,0],"split_type":[0,0,0,0,0,0,0,0,0,0,0,0,0,0,0,0,0,0,0,0,0,0,0,0,0,0,0,0,0,0,0,0,0],"sum_hessian":[1.1251742E3,7.967883E2,3.2838586E2,1.3985004E2,6.569383E2,1.3648141E2,3.3686223E0,3.6126303E2,2.956753E2,1.0083017E0,2.3603206E0,2.4317743E2,1.180856E2,1.0321452E2,1.9246077E2,3.5580486E1,2.0759695E2,1.1674654E2,1.3390652E0,1.0033346E2,2.8810601E0,1.8887105E2,3.5897238E0,2.5798574E1,9.781913E0,1.1998999E0,2.0639705E2,9.092507E1,9.408385E0,1.3496766E0,1.5313835E0,2.22687E0,1.3628538E0],"tree_param":{"num_deleted":"0","num_feature":"18","num_nodes":"33","size_leaf_vector":"1"}},{"base_weights":[9.4379926E-1,-2.7979946E-2,3.5851626E0,1.4330367E0,1.799591E-1,7.248631E-3,9.451913E-2],"categories":[],"categories_nodes":[],"categories_segments":[],"categories_sizes":[],"default_left":[0,0,0,0,0,0,0],"id":14,"left_children":[1,-1,3,5,-1,-1,-1],"loss_changes":[4.4385E3,0E0,7.072754E0,2.2503014E0,0E0,0E0,0E0],"parents":[2147483647,0,0,2,2,3,3],"right_children":[2,-1,4,6,-1,-1,-1],"split_conditions":[7.18086E-1,-2.7979946E-2,7.213937E-1,4.8343837E-1,1.799591E-1,7.248631E-3,9.451913E-2],"split_indices":[6,0,6,15,0,0,0],"split_type":[0,0,0,0,0,0,0],"sum_hessian":[1.1162174E3,7.118425E2,4.0437488E2,3.2851708E0,4.010897E2,1.2058933E0,2.0792775E0],"tree_param":{"num_deleted":"0","num_feature":"18","num_nodes":"7","size_leaf_vector":"1"}},{"base_weights":[-5.9351157E-2,1.7296989E0,-2.7992016E-2,1.8208896E0,1.2441435E0,1.8351302E0,-1.5019131E-2,1.4545592E0,2.4193527E-1,1.849532E0,-1.5012862E-2,1.16793446E-1,1.5736692E0,-2.0446992E-2,6.389886E-1,1.1162299E0,1.9097047E0,-1.6125282E-2,2.4811724E-2,8.629992E-1,1.8444229E0,1.1124665E0,-1.7007237E-2,6.587166E-2,-4.777034E-3,1.0216885E-1,7.54781E-2,1.5975172E-2,8.5253514E-2,1.03744924E-1,7.5493264E-3,2.2481435E-3,9.05775E-2],"categories":[],"categories_nodes":[],"categories_segments":[],"categories_sizes":[],"default_left":[0,0,0,0,0,0,0,0,0,0,0,0,0,0,0,0,0,0,0,0,0,0,0,0,0,0,0,0,0,0,0,0,0],"id":15,"left_children":[1,3,-1,5,7,9,-1,11,13,15,-1,17,19,-1,21,23,25,-1,-1,27,29,31,-1,-1,-1,-1,-1,-1,-1,-1,-1,-1,-1],"loss_changes":[9.557401E2,8.066223E0,0E0,6.420349E0,8.093998E0,6.494812E0,0E0,5.0587845E0,2.3673103E0,6.3392944E0,0E0,7.884698E-1,4.2060623E0,0E0,2.9058084E0,4.262207E0,6.329956E0,0E0,0E0,4.119695E0,7.8592987E0,2.835658E0,0E0,0E0,0E0,0E0,0E0,0E0,0E0,0E0,0E0,0E0,0E0],"parents":[2147483647,0,0,1,1,3,3,4,4,5,5,7,7,8,8,9,9,11,11,12,12,14,14,15,15,16,16,19,19,20,20,21,21],"right_children":[2,4,-1,6,8,10,-1,12,14,16,-1,18,20,-1,22,24,26,-1,-1,28,30,32,-1,-1,-1,-1,-1,-1,-1,-1,-1,-1,-1],"split_conditions":[-1.489136E-1,7.733577E-1,-2.7992016E-2,6.9686043E-1,7.147764E-1,9.913816E-1,-1.5019131E-2,7.8183657E-1,2.5112635E-1,5.5401433E-2,-1.5012862E-2,5.92834E-1,3.454757E-1,-2.0446992E-2,4.6423587E-1,6.0781777E-1,6.884201E-1,-1.6125282E-2,2.4811724E-2,4.593663E-1,9.198948E-1,6.683129E-1,-1.7007237E-2,6.587166E-2,-4.777034E-3,1.0216885E-1,7.54781E-2,1.5975172E-2,8.5253514E-2,1.03744924E-1,7.5493264E-3,2.2481435E-3,9.05775E-2],"split_indices":[10,14,0,8,16,12,0,14,8,8,0,13,15,0,0,7,16,0,0,3,13,4,0,0,0,0,0,0,0,0,0,0,0],"split_type":[0,0,0,0,0,0,0,0,0,0,0,0,0,0,0,0,0,0,0,0,0,0,0,0,0,0,0,0,0,0,0,0,0],"sum_hessian":[1.0653073E3,2.3233737E2,8.3296985E2,1.9328668E2,3.90507E1,1.9213173E2,1.1549457E0,3.190155E1,7.149151E0,1.9097758E2,1.1541469E0,2.7701037E0,2.9131447E1,2.6974242E0,4.4517264E0,1.5965263E1,1.7501231E2,1.353331E0,1.4167728E0,9.191954E0,1.9939491E1,2.9089E0,1.5428264E0,1.3617077E1,2.3481865E0,1.281093E2,4.6903015E1,6.424701E0,2.7672527E0,1.7352562E1,2.5869303E0,1.572303E0,1.336597E0],"tree_param":{"num_deleted":"0","num_feature":"18","num_nodes":"33","size_leaf_vector":"1"}},{"base_weights":[-5.5982554E-1],"categories":[],"categories_nodes":[],"categories_segments":[],"categories_sizes":[],"default_left":[0],"id":16,"left_children":[-1],"loss_changes":[0E0],"parents":[2147483647],"right_children":[-1],"split_conditions":[-2.7991278E-2],"split_indices":[0],"split_type":[0],"sum_hessian":[1.0325406E3],"tree_param":{"num_deleted":"0","num_feature":"18","num_nodes":"1","size_leaf_vector":"1"}},{"base_weights":[-5.5982655E-1],"categories":[],"categories_nodes":[],"categories_segments":[],"categories_sizes":[],"default_left":[0],"id":17,"left_children":[-1],"loss_changes":[0E0],"parents":[2147483647],"right_children":[-1],"split_conditions":[-2.7991328E-2],"split_indices":[0],"split_type":[0],"sum_hessian":[1.0314089E3],"tree_param":{"num_deleted":"0","num_feature":"18","num_nodes":"1","size_leaf_vector":"1"}},{"base_weights":[5.6876065E-3,-2.7879167E-2,1.2059987E0,-6.189192E-2,1.2216132E0,2.7236452E-2,-2.058971E-2,9.949166E-1,1.307764E0,1.1157631E0,3.2624963E-1,-1.6167721E-1,1.3263068E0,1.1745619E0,-4.272135E-2,7.330412E-1,-3.3395332E-1,1.0355893E-2,-1.8226301E-2,8.598044E-1,1.3842237E0,-1.8141707E-3,6.0316473E-2,-2.0581448E-2,3.2111008E-2,-5.9633357E-3,5.1086135E-2,-2.3168094E-2,1.0366252E-2,2.6960333E-3,5.079196E-2,7.073014E-2,2.3403838E-2],"categories":[],"categories_nodes":[],"categories_segments":[],"categories_sizes":[],"default_left":[0,0,0,0,0,0,0,0,0,0,0,0,0,0,0,0,0,0,0,0,0,0,0,0,0,0,0,0,0,0,0,0,0],"id":18,"left_children":[1,-1,3,5,7,-1,-1,9,11,13,15,17,19,21,23,25,27,-1,-1,29,31,-1,-1,-1,-1,-1,-1,-1,-1,-1,-1,-1,-1],"loss_changes":[7.232195E2,0E0,6.8393555E0,1.3085525E0,5.291107E0,0E0,0E0,7.484726E0,6.792206E0,5.6256332E0,4.617172E0,3.672341E-1,5.253937E0,3.0414505E0,1.507175E0,2.6774187E0,5.7896066E-1,0E0,0E0,3.589407E0,5.197235E0,0E0,0E0,0E0,0E0,0E0,0E0,0E0,0E0,0E0,0E0,0E0,0E0],"parents":[2147483647,0,0,2,2,3,3,4,4,7,7,8,8,9,9,10,10,11,11,12,12,13,13,14,14,15,15,16,16,19,19,20,20],"right_children":[2,-1,4,6,8,-1,-1,10,12,14,16,18,20,22,24,26,28,-1,-1,30,32,-1,-1,-1,-1,-1,-1,-1,-1,-1,-1,-1,-1],"split_conditions":[2.1904649E-1,-2.7879167E-2,3.0887753E-1,3.7330106E-1,1.7293067E-1,2.7236452E-2,-2.058971E-2,1.4020501E-1,3.093904E-1,6.65223E-1,2.08808E-1,1.1068879E-1,2.9665697E-1,5.5721686E-3,4.786606E-1,1.1159386E-1,8.2538277E-1,1.0355893E-2,-1.8226301E-2,2.8203207E-1,8.915241E-1,-1.8141707E-3,6.0316473E-2,-2.0581448E-2,3.2111008E-2,-5.9633357E-3,5.1086135E-2,-2.3168094E-2,1.0366252E-2,2.6960333E-3,5.079196E-2,7.073014E-2,2.3403838E-2],"split_indices":[10,0,16,5,9,0,0,9,17,8,1,1,5,9,10,1,5,0,0,4,3,0,0,0,0,0,0,0,0,0,0,0,0],"split_type":[0,0,0,0,0,0,0,0,0,0,0,0,0,0,0,0,0,0,0,0,0,0,0,0,0,0,0,0,0,0,0,0,0],"sum_hessian":[1.0676979E3,7.2705E2,3.4064786E2,4.108104E0,3.3653976E2,1.2990885E0,2.809016E0,9.613077E1,2.4040898E2,8.085028E1,1.5280491E1,2.8996885E0,2.375093E2,7.693173E1,3.9185457E0,9.386539E0,5.893951E0,1.0214913E0,1.8781972E0,2.7980507E1,2.095288E2,1.9631375E0,7.49686E1,2.8061771E0,1.1123687E0,2.523367E0,6.863173E0,4.8728914E0,1.0210595E0,4.7570443E0,2.3223463E1,2.0227727E2,7.2515244E0],"tree_param":{"num_deleted":"0","num_feature":"18","num_nodes":"33","size_leaf_vector":"1"}},{"base_weights":[-5.577666E-1],"categories":[],"categories_nodes":[],"categories_segments":[],"categories_sizes":[],"default_left":[0],"id":19,"left_children":[-1],"loss_changes":[0E0],"parents":[2147483647],"right_children":[-1],"split_conditions":[-2.7888332E-2],"split_indices":[0],"split_type":[0],"sum_hessian":[1.00200146E3],"tree_param":{"num_deleted":"0","num_feature":"18","num_nodes":"1","size_leaf_vector":"1"}},{"base_weights":[-5.577708E-1],"categories":[],"categories_nodes":[],"categories_segments":[],"categories_sizes":[],"default_left":[0],"id":20,"left_children":[-1],"loss_changes":[0E0],"parents":[2147483647],"right_children":[-1],"split_conditions":[-2.788854E-2],"split_indices":[0],"split_type":[0],"sum_hessian":[1.00837024E3],"tree_param":{"num_deleted":"0","num_feature":"18","num_nodes":"1","size_leaf_vector":"1"}},{"base_weights":[1.3120471E-1,-2.7884925E-2,1.2274971E0,1.6710374E0,-7.072673E-2,2.080713E-3,1.6792723E0,-2.6109083E-2,1.8298868E-3,1.69908E0,8.698555E-1,-6.268192E-2,4.9291E-1,1.7442645E0,1.214553E0,-1.7515827E-2,1.1816308E0,5.303663E-2,-9.185982E-2,-2.403985E-1,9.295569E-1,8.7936126E-2,3.3868093E-2,8.496697E-2,3.4508538E-2,7.396614E-2,-1.4798527E-2,2.7772633E-3,-1.447475E-2,-2.0702673E-2,1.0511185E-2,7.661911E-2,4.0139793E-3],"categories":[],"categories_nodes":[],"categories_segments":[],"categories_sizes":[],"default_left":[0,0,0,0,0,0,0,0,0,0,0,0,0,0,0,0,0,0,0,0,0,0,0,0,0,0,0,0,0,0,0,0,0],"id":21,"left_children":[1,-1,3,5,7,-1,9,-1,11,13,15,17,19,21,23,-1,25,-1,27,29,31,-1,-1,-1,-1,-1,-1,-1,-1,-1,-1,-1,-1],"loss_changes":[8.119966E2,0E0,2.390014E2,4.07959E0,3.4928746E0,0E0,3.4550781E0,0E0,2.972097E0,4.4334717E0,3.9893084E0,2.8163416E0,3.711292E0,2.9961548E0,6.1539345E0,0E0,3.831174E0,0E0,2.3981605E0,4.673433E-1,3.4775743E0,0E0,0E0,0E0,0E0,0E0,0E0,0E0,0E0,0E0,0E0,0E0,0E0],"parents":[2147483647,0,0,2,2,3,3,4,4,6,6,8,8,9,9,10,10,11,11,12,12,13,13,14,14,16,16,18,18,19,19,20,20],"right_children":[2,-1,4,6,8,-1,10,-1,12,14,16,18,20,22,24,-1,26,-1,28,30,32,-1,-1,-1,-1,-1,-1,-1,-1,-1,-1,-1,-1],"split_conditions":[7.2039247E-1,-2.7884925E-2,2.1904649E-1,2.0648558E-1,5.7175493E-1,2.080713E-3,8.2958734E-1,-2.6109083E-2,9.493527E-1,7.412461E-1,9.1001935E-2,5.756052E-1,7.737001E-1,8.1149393E-1,6.8998086E-1,-1.7515827E-2,4.5980978E-1,5.303663E-2,8.8048846E-1,5.2015424E-1,7.72374E-1,8.7936126E-2,3.3868093E-2,8.496697E-2,3.4508538E-2,7.396614E-2,-1.4798527E-2,2.7772633E-3,-1.447475E-2,-2.0702673E-2,1.0511185E-2,7.661911E-2,4.0139793E-3],"split_indices":[5,0,10,14,0,0,16,0,12,0,1,0,3,4,12,0,9,0,5,8,0,0,0,0,0,0,0,0,0,0,0,0,0],"split_type":[0,0,0,0,0,0,0,0,0,0,0,0,0,0,0,0,0,0,0,0,0,0,0,0,0,0,0,0,0,0,0,0,0],"sum_hessian":[1.0732449E3,6.593836E2,4.138612E2,3.082574E2,1.0560383E2,1.580488E0,3.066769E2,1.3764262E1,9.183956E1,2.982784E2,8.398475E0,8.19468E1,9.892761E0,2.704571E2,2.7821335E1,1.684063E0,6.7144113E0,1.1794983E0,8.07673E1,3.8598838E0,6.0328774E0,2.662012E2,4.2558713E0,1.3292184E1,1.4529151E1,5.5875287E0,1.1268829E0,4.6674408E1,3.4092896E1,2.8447587E0,1.0151249E0,3.0579665E0,2.974911E0],"tree_param":{"num_deleted":"0","num_feature":"18","num_nodes":"33","size_leaf_vector":"1"}},{"base_weights":[9.73333E-1,1.5377566E0,-2.781682E-2,-5.4786885E-1,1.9363132E0,-2.7746592E-2,-9.92607E-2,2.570884E0,6.600127E-1,-1.6241899E-2,1.08691E-2,1.5670832E-1,1.3571906E0,-5.4864275E-1,2.9741561E0,-2.7534217E-2,1.5197131E-1,-2.8054876E-2,2.7099485E-2,1.5018429E-1,2.8437478E-2],"categories":[],"categories_nodes":[],"categories_segments":[],"categories_sizes":[],"default_left":[0,0,0,0,0,0,0,0,0,0,0,0,0,0,0,0,0,0,0,0,0],"id":22,"left_children":[1,3,-1,5,7,-1,9,11,13,-1,-1,-1,15,17,19,-1,-1,-1,-1,-1,-1],"loss_changes":[1.01849036E3,7.169591E2,0E0,3.851967E-1,5.84095E2,0E0,3.1144246E-1,3.2577832E2,6.772131E2,0E0,0E0,0E0,4.984713E2,2.4708328E0,4.189026E0,0E0,0E0,0E0,0E0,0E0,0E0],"parents":[2147483647,0,0,1,1,3,3,4,4,6,6,7,7,8,8,12,12,13,13,14,14],"right_children":[2,4,-1,6,8,-1,10,12,14,-1,-1,-1,16,18,20,-1,-1,-1,-1,-1,-1],"split_conditions":[7.213937E-1,-1.489136E-1,-2.781682E-2,-1.5181403E-1,7.2039247E-1,-2.7746592E-2,6.091339E-1,2.1904649E-1,5.5110896E-1,-1.6241899E-2,1.08691E-2,1.5670832E-1,4.5015523E-1,5.4653215E-1,7.18086E-1,-2.7534217E-2,1.5197131E-1,-2.8054876E-2,2.7099485E-2,1.5018429E-1,2.8437478E-2],"split_indices":[6,10,0,10,5,0,17,10,6,0,0,0,6,6,6,0,0,0,0,0,0],"split_type":[0,0,0,0,0,0,0,0,0,0,0,0,0,0,0,0,0,0,0,0,0],"sum_hessian":[1.1776621E3,8.602415E2,3.1742062E2,1.3795512E2,7.222864E2,1.3558347E2,2.3716555E0,4.8174875E2,2.4053763E2,1.3698725E0,1.0017831E0,3.2795883E2,1.5378992E2,1.5851147E2,8.2026146E1,7.237728E1,8.1412636E1,1.5720181E2,1.3096684E0,8.0785675E1,1.2404722E0],"tree_param":{"num_deleted":"0","num_feature":"18","num_nodes":"21","size_leaf_vector":"1"}},{"base_weights":[8.891624E-1,-2.788115E-2,3.0132465E0,1.4047728E0,1.5126304E-1,1.1057919E-1,2.1756117E-1,-1.5620341E-2,3.4532357E-2],"categories":[],"categories_nodes":[],"categories_segments":[],"categories_sizes":[],"default_left":[0,0,0,0,0,0,0,0,0],"id":23,"left_children":[1,-1,3,5,-1,-1,7,-1,-1],"loss_changes":[3.5634326E3,0E0,4.828125E0,4.6428814E0,0E0,0E0,1.0365181E0,0E0,0E0],"parents":[2147483647,0,0,2,2,3,3,6,6],"right_children":[2,-1,4,6,-1,-1,8,-1,-1],"split_conditions":[7.18086E-1,-2.788115E-2,7.213937E-1,2.8192103E-1,1.5126304E-1,1.1057919E-1,5.4462E-1,-1.5620341E-2,3.4532357E-2],"split_indices":[6,0,6,9,0,0,4,0,0],"split_type":[0,0,0,0,0,0,0,0,0],"sum_hessian":[1.158012E3,6.8926666E2,4.687453E2,4.349487E0,4.643958E2,2.0758984E0,2.2735884E0,1.2325178E0,1.0410707E0],"tree_param":{"num_deleted":"0","num_feature":"18","num_nodes":"9","size_leaf_vector":"1"}},{"base_weights":[-5.9011348E-2,1.5724224E0,-2.7888892E-2,2.4407387E0,-2.7859846E-2,3.279675E0,6.5474343E-1,1.6500627E-1,6.655671E-2,-2.754037E-2,1.611135E-1],"categories":[],"categories_nodes":[],"categories_segments":[],"categories_sizes":[],"default_left":[0,0,0,0,0,0,0,0,0,0,0],"id":24,"left_children":[1,3,-1,5,-1,7,9,-1,-1,-1,-1],"loss_changes":[8.6085284E2,4.594339E2,0E0,2.617915E2,0E0,3.7316895E-1,1.7990521E2,0E0,0E0,0E0,0E0],"parents":[2147483647,0,0,1,1,3,3,5,5,6,6],"right_children":[2,4,-1,6,-1,8,10,-1,-1,-1,-1],"split_conditions":[-1.489136E-1,7.213937E-1,-2.7888892E-2,7.2039247E-1,-2.7859846E-2,-1.5181403E-1,5.5110896E-1,1.6500627E-1,6.655671E-2,-2.754037E-2,1.611135E-1],"split_indices":[10,6,0,5,0,10,6,0,0,0,0],"split_type":[0,0,0,0,0,0,0,0,0,0,0],"sum_hessian":[1.055865E3,2.4671693E2,8.0914813E2,1.7515454E2,7.156239E1,1.1860557E2,5.6548965E1,1.1668728E2,1.9182891E0,3.9015285E1,1.7533682E1],"tree_param":{"num_deleted":"0","num_feature":"18","num_nodes":"11","size_leaf_vector":"1"}},{"base_weights":[-5.5776894E-1],"categories":[],"categories_nodes":[],"categories_segments":[],"categories_sizes":[],"default_left":[0],"id":25,"left_children":[-1],"loss_changes":[0E0],"parents":[2147483647],"right_children":[-1],"split_conditions":[-2.7888447E-2],"split_indices":[0],"split_type":[0],"sum_hessian":[1.007602E3],"tree_param":{"num_deleted":"0","num_feature":"18","num_nodes":"1","size_leaf_vector":"1"}},{"base_weights":[-5.5777365E-1],"categories":[],"categories_nodes":[],"categories_segments":[],"categories_sizes":[],"default_left":[0],"id":26,"left_children":[-1],"loss_changes":[0E0],"parents":[2147483647],"right_children":[-1],"split_conditions":[-2.7888684E-2],"split_indices":[0],"split_type":[0],"sum_hessian":[1.01008014E3],"tree_param":{"num_deleted":"0","num_feature":"18","num_nodes":"1","size_leaf_vector":"1"}},{"base_weights":[1.1890801E-2,7.772608E-1,-2.7837267E-2,-2.8399244E-1,1.5597315E0,-5.053525E-1,3.7051776E-1,1.0788852E0,1.9370735E0,-5.44456E-1,-2.465105E-1,4.7120503E-1,-3.3020997E-1,1.1431128E0,1.0172152E-1,5.7431155E-1,1.9615905E0,-1.5054116E-3,-2.7613545E-2,2.69138E-1,-4.027205E-1,1.9032846E-1,8.30273E-1,-2.3040852E-2,1.0399565E-2,7.900755E-1,1.3201447E0,5.7334658E-2,-2.0889156E-1,5.5581838E-2,-1.5637139E-2,1.948983E-2,1.9775218E0,-1.7991625E-2,3.4311976E-2,2.6495892E-3,-2.5737181E-2,3.9150327E-2,-3.0809739E-3,4.813011E-2,-1.7299922E-2,-8.8121025E-3,4.38256E-2,7.343254E-2,3.4352314E-2,9.124366E-3,-2.2092192E-2,9.9515446E-2,2.3177253E-2],"categories":[],"categories_nodes":[],"categories_segments":[],"categories_sizes":[],"default_left":[0,0,0,0,0,0,0,0,0,0,0,0,0,0,0,0,0,0,0,0,0,0,0,0,0,0,0,0,0,0,0,0,0,0,0,0,0,0,0,0,0,0,0,0,0,0,0,0,0],"id":27,"left_children":[1,3,-1,5,7,9,11,13,15,17,19,21,23,25,27,29,31,-1,-1,33,35,37,39,-1,-1,41,43,-1,45,-1,-1,-1,47,-1,-1,-1,-1,-1,-1,-1,-1,-1,-1,-1,-1,-1,-1,-1,-1],"loss_changes":[4.6329443E2,3.772411E2,0E0,2.821015E1,4.5328064E1,1.333004E0,3.645207E0,7.2371674E0,3.723755E0,4.862442E-1,1.7880269E0,4.245041E0,5.739746E-1,5.821991E0,2.9413118E0,2.2444587E0,2.789734E0,0E0,0E0,1.6760944E0,8.6473775E-1,3.8998432E0,3.2693987E0,0E0,0E0,3.4266129E0,5.729004E0,0E0,7.4276984E-1,0E0,0E0,0E0,1.7977295E0,0E0,0E0,0E0,0E0,0E0,0E0,0E0,0E0,0E0,0E0,0E0,0E0,0E0,0E0,0E0,0E0],"parents":[2147483647,0,0,1,1,3,3,4,4,5,5,6,6,7,7,8,8,9,9,10,10,11,11,12,12,13,13,14,14,15,15,16,16,19,19,20,20,21,21,22,22,25,25,26,26,28,28,32,32],"right_children":[2,4,-1,6,8,10,12,14,16,18,20,22,24,26,28,30,32,-1,-1,34,36,38,40,-1,-1,42,44,-1,46,-1,-1,-1,48,-1,-1,-1,-1,-1,-1,-1,-1,-1,-1,-1,-1,-1,-1,-1,-1],"split_conditions":[4.5015523E-1,5.916552E-1,-2.7837267E-2,5.268116E-1,7.4960864E-1,4.8883873E-1,8.872586E-1,8.0414957E-1,3.1585526E-1,2.4958299E-1,1.4545457E-1,5.43905E-1,7.5994086E-1,6.124532E-1,5.4202145E-1,6.756858E-1,1.3978849E-2,-1.5054116E-3,-2.7613545E-2,4.1016948E-1,1.8450047E-1,1.3775918E-1,2.6941088E-1,-2.3040852E-2,1.0399565E-2,1.7012735E-1,7.268558E-1,5.7334658E-2,1.4187981E-1,5.5581838E-2,-1.5637139E-2,1.948983E-2,8.9695144E-1,-1.7991625E-2,3.4311976E-2,2.6495892E-3,-2.5737181E-2,3.9150327E-2,-3.0809739E-3,4.813011E-2,-1.7299922E-2,-8.8121025E-3,4.38256E-2,7.343254E-2,3.4352314E-2,9.124366E-3,-2.2092192E-2,9.9515446E-2,2.3177253E-2],"split_indices":[6,3,0,3,3,0,11,15,16,2,9,11,16,0,0,13,8,0,0,15,6,11,1,0,0,15,17,0,2,0,0,0,3,0,0,0,0,0,0,0,0,0,0,0,0,0,0,0,0],"split_type":[0,0,0,0,0,0,0,0,0,0,0,0,0,0,0,0,0,0,0,0,0,0,0,0,0,0,0,0,0,0,0,0,0,0,0,0,0,0,0,0,0,0,0,0,0,0,0,0,0],"sum_hessian":[1.0625193E3,4.5275522E2,6.0976404E2,1.9241829E2,2.6033694E2,1.4395842E2,4.8459873E1,1.1616598E2,1.4417096E2,1.2410614E2,1.9852272E1,4.2657925E1,5.8019495E0,1.088421E2,7.3238716E0,2.9795568E0,1.411914E2,1.9300474E0,1.22176094E2,4.447656E0,1.5404615E1,2.479354E1,1.7864386E1,4.784631E0,1.0173187E0,3.817544E1,7.0666664E1,1.0613946E0,6.2624774E0,1.6978945E0,1.2816622E0,1.6722529E0,1.3951915E2,1.828166E0,2.6194901E0,3.1435497E0,1.22610655E1,6.7670455E0,1.8026495E1,1.622117E1,1.6432147E0,3.0490947E0,3.5126347E1,5.6170853E1,1.449581E1,2.4175043E0,3.8449728E0,1.3803867E2,1.4804971E0],"tree_param":{"num_deleted":"0","num_feature":"18","num_nodes":"49","size_leaf_vector":"1"}},{"base_weights":[-5.557747E-1],"categories":[],"categories_nodes":[],"categories_segments":[],"categories_sizes":[],"default_left":[0],"id":28,"left_children":[-1],"loss_changes":[0E0],"parents":[2147483647],"right_children":[-1],"split_conditions":[-2.7788734E-2],"split_indices":[0],"split_type":[0],"sum_hessian":[9.775778E2],"tree_param":{"num_deleted":"0","num_feature":"18","num_nodes":"1","size_leaf_vector":"1"}},{"base_weights":[-5.557801E-1],"categories":[],"categories_nodes":[],"categories_segments":[],"categories_sizes":[],"default_left":[0],"id":29,"left_children":[-1],"loss_changes":[0E0],"parents":[2147483647],"right_children":[-1],"split_conditions":[-2.7789006E-2],"split_indices":[0],"split_type":[0],"sum_hessian":[9.7927814E2],"tree_param":{"num_deleted":"0","num_feature":"18","num_nodes":"1","size_leaf_vector":"1"}},{"base_weights":[1.4020845E-1,-2.778293E-2,1.1586425E0,1.5431944E0,-3.8487468E-2,1.5849619E0,1.0704103E0,-1.0400256E-1,6.5492886E-1,1.6005548E0,4.4475546E-1,5.052625E-1,1.3989314E0,-2.533493E-1,9.5033005E-2,-1.8192722E-2,9.552867E-1,1.7407011E0,1.4489396E0,-1.9465715E-2,1.1649008E0,1.6784924E-1,6.971221E-2,1.5862107E0,3.2258937E-1,-3.796743E-1,-2.8393347E-2,3.5347155E-1,-1.9942862E-1,1.1846215E0,2.3081407E-3,8.880847E-2,4.827314E-2,1.7262215E-2,7.3413216E-2,7.76583E-2,9.6841995E-3,-2.1442674E-2,2.5335124E-2,8.5377656E-2,6.1742044E-3,-1.7739082E-2,4.9863037E-2,-8.589856E-3,-2.4569517E-2,-8.965335E-3,5.126028E-2,-3.7991558E-3,5.3087424E-2,-2.4886122E-2,1.6914459E-3,2.0810072E-3,7.9214096E-2],"categories":[],"categories_nodes":[],"categories_segments":[],"categories_sizes":[],"default_left":[0,0,0,0,0,0,0,0,0,0,0,0,0,0,0,0,0,0,0,0,0,0,0,0,0,0,0,0,0,0,0,0,0,0,0,0,0,0,0,0,0,0,0,0,0,0,0,0,0,0,0,0,0],"id":30,"left_children":[1,-1,3,5,7,9,11,13,15,17,19,21,23,25,27,-1,29,31,33,-1,35,37,-1,39,41,43,45,47,49,51,-1,-1,-1,-1,-1,-1,-1,-1,-1,-1,-1,-1,-1,-1,-1,-1,-1,-1,-1,-1,-1,-1,-1],"loss_changes":[7.6598444E2,0E0,2.0201318E2,4.8604736E0,4.9578075E0,4.675659E0,4.8693733E0,2.9729671E0,3.232708E0,3.8214722E0,3.7407985E0,3.5472474E0,3.2029266E0,1.6075926E0,3.3622012E0,0E0,1.5210161E0,2.4143982E0,2.6789856E0,0E0,9.0115213E-1,2.2947981E0,0E0,2.5298462E0,2.1756284E0,7.6065254E-1,3.6120188E0,7.197481E0,1.4680988E0,2.6724625E0,0E0,0E0,0E0,0E0,0E0,0E0,0E0,0E0,0E0,0E0,0E0,0E0,0E0,0E0,0E0,0E0,0E0,0E0,0E0,0E0,0E0,0E0,0E0],"parents":[2147483647,0,0,2,2,3,3,4,4,5,5,6,6,7,7,8,8,9,9,10,10,11,11,12,12,13,13,14,14,16,16,17,17,18,18,20,20,21,21,23,23,24,24,25,25,26,26,27,27,28,28,29,29],"right_children":[2,-1,4,6,8,10,12,14,16,18,20,22,24,26,28,-1,30,32,34,-1,36,38,-1,40,42,44,46,48,50,52,-1,-1,-1,-1,-1,-1,-1,-1,-1,-1,-1,-1,-1,-1,-1,-1,-1,-1,-1,-1,-1,-1,-1],"split_conditions":[7.2039247E-1,-2.778293E-2,2.1904649E-1,7.412461E-1,5.1520437E-1,8.1149393E-1,6.892474E-1,3.4885192E-1,5.5294603E-1,3.4558964E-1,7.9283243E-1,8.0175805E-1,7.568864E-2,4.2965233E-1,5.51687E-1,-1.8192722E-2,9.300917E-1,5.698105E-1,3.5060555E-1,-1.9465715E-2,8.5950065E-1,7.6912785E-1,6.971221E-2,8.089478E-1,4.5701545E-1,6.188694E-1,2.0669757E-1,7.1143824E-1,7.2990566E-1,2.5112635E-1,2.3081407E-3,8.880847E-2,4.827314E-2,1.7262215E-2,7.3413216E-2,7.76583E-2,9.6841995E-3,-2.1442674E-2,2.5335124E-2,8.5377656E-2,6.1742044E-3,-1.7739082E-2,4.9863037E-2,-8.589856E-3,-2.4569517E-2,-8.965335E-3,5.126028E-2,-3.7991558E-3,5.3087424E-2,-2.4886122E-2,1.6914459E-3,2.0810072E-3,7.9214096E-2],"split_indices":[5,0,10,0,10,4,4,9,12,2,12,14,2,4,11,0,5,9,2,0,12,0,0,17,8,13,2,13,3,8,0,0,0,0,0,0,0,0,0,0,0,0,0,0,0,0,0,0,0,0,0,0,0],"split_type":[0,0,0,0,0,0,0,0,0,0,0,0,0,0,0,0,0,0,0,0,0,0,0,0,0,0,0,0,0,0,0,0,0,0,0,0,0,0,0,0,0,0,0,0,0,0,0,0,0,0,0,0,0],"sum_hessian":[1.0789298E3,6.4124194E2,4.3768793E2,3.3105475E2,1.06633194E2,3.0202075E2,2.9033989E1,9.820467E1,8.428521E0,2.9754788E2,4.4728675E0,1.1606158E1,1.7427832E1,5.5949764E1,4.225491E1,1.8709714E0,6.5575495E0,1.4917564E2,1.4837224E2,2.2853632E0,2.1875045E0,9.274738E0,2.3314195E0,1.4441381E1,2.9864497E0,3.5389095E1,2.056067E1,2.2397243E1,1.9857668E1,4.994584E0,1.5629654E0,1.4141461E2,7.761039E0,2.8777874E0,1.4549446E2,1.1346909E0,1.0528135E0,3.2630596E0,6.011679E0,1.3180591E1,1.2607905E0,1.7268406E0,1.259609E0,1.325761E1,2.2131485E1,1.871047E1,1.850199E0,1.4498802E1,7.898442E0,8.216489E0,1.1641178E1,1.5800085E0,3.4145753E0],"tree_param":{"num_deleted":"0","num_feature":"18","num_nodes":"53","size_leaf_vector":"1"}},{"base_weights":[9.004398E-1,1.3872536E0,-2.7697057E-2,-5.3099895E-1,1.7189366E0,-2.7643979E-2,2.8576002E-1,2.244862E0,5.866345E-1,5.8037132E-2,-1.90981E-2,2.6886768E0,1.2269783E0,-2.7992992E-2,2.6117642E0,1.3466267E-1,3.126903E-2,-2.7484734E-2,1.3220732E-1,1.312871E-1,3.4854487E-2],"categories":[],"categories_nodes":[],"categories_segments":[],"categories_sizes":[],"default_left":[0,0,0,0,0,0,0,0,0,0,0,0,0,0,0,0,0,0,0,0,0],"id":31,"left_children":[1,3,-1,5,7,-1,9,11,13,-1,-1,15,17,-1,19,-1,-1,-1,-1,-1,-1],"loss_changes":[8.6433984E2,5.8252136E2,0E0,2.5799294E0,4.6293726E2,0E0,2.8943317E0,2.3702563E2,5.7868744E2,0E0,0E0,1.8061523E0,4.1278217E2,0E0,5.794678E-1,0E0,0E0,0E0,0E0,0E0,0E0],"parents":[2147483647,0,0,1,1,3,3,4,4,6,6,7,7,8,8,11,11,12,12,14,14],"right_children":[2,4,-1,6,8,-1,10,12,14,-1,-1,16,18,-1,20,-1,-1,-1,-1,-1,-1],"split_conditions":[7.213937E-1,-1.489136E-1,-2.7697057E-2,-1.5181403E-1,7.2039247E-1,-2.7643979E-2,3.8890463E-1,2.1904649E-1,5.5110896E-1,5.8037132E-2,-1.90981E-2,7.18086E-1,4.5015523E-1,-2.7992992E-2,7.18086E-1,1.3466267E-1,3.126903E-2,-2.7484734E-2,1.3220732E-1,1.312871E-1,3.4854487E-2],"split_indices":[6,10,0,10,5,0,16,10,6,0,0,6,6,0,6,0,0,0,0,0,0],"split_type":[0,0,0,0,0,0,0,0,0,0,0,0,0,0,0,0,0,0,0,0,0],"sum_hessian":[1.2187117E3,9.131171E2,3.055946E2,1.345221E2,7.7859503E2,1.3132698E2,3.1951094E0,5.3098395E2,2.476111E2,1.063343E0,2.1317663E0,3.686185E2,1.6236542E2,1.5856541E2,8.9045685E1,3.6749805E2,1.1204687E0,7.231624E1,9.004919E1,8.803165E1,1.0140421E0],"tree_param":{"num_deleted":"0","num_feature":"18","num_nodes":"21","size_leaf_vector":"1"}},{"base_weights":[8.2240105E-1,-2.7789896E-2,2.6167037E0,1.2861291E0,1.3124526E-1,1.4011894E-2,9.2181996E-2],"categories":[],"categories_nodes":[],"categories_segments":[],"categories_sizes":[],"default_left":[0,0,0,0,0,0,0],"id":32,"left_children":[1,-1,3,5,-1,-1,-1],"loss_changes":[2.9535825E3,0E0,2.2856445E0,2.3651352E0,0E0,0E0,0E0],"parents":[2147483647,0,0,2,2,3,3],"right_children":[2,-1,4,6,-1,-1,-1],"split_conditions":[7.18086E-1,-2.7789896E-2,7.213937E-1,4.9839398E-1,1.3124526E-1,1.4011894E-2,9.2181996E-2],"split_indices":[6,0,6,11,0,0,0],"split_type":[0,0,0,0,0,0,0],"sum_hessian":[1.1927891E3,6.750077E2,5.177814E2,4.138761E0,5.136426E2,2.0117362E0,2.1270247E0],"tree_param":{"num_deleted":"0","num_feature":"18","num_nodes":"7","size_leaf_vector":"1"}},{"base_weights":[-4.977368E-2,1.4621218E0,-2.7788172E-2,2.17022E0,-2.7715994E-2,2.7962174E0,6.903309E-1,1.4043398E-1,3.2233853E-2,-2.744498E-2,1.4008747E-1],"categories":[],"categories_nodes":[],"categories_segments":[],"categories_sizes":[],"default_left":[0,0,0,0,0,0,0,0,0,0,0],"id":33,"left_children":[1,3,-1,5,-1,7,9,-1,-1,-1,-1],"loss_changes":[8.0715045E2,3.7897534E2,0E0,1.7966156E2,0E0,1.8739014E0,1.5747314E2,0E0,0E0,0E0,0E0],"parents":[2147483647,0,0,1,1,3,3,5,5,6,6],"right_children":[2,4,-1,6,-1,8,10,-1,-1,-1,-1],"split_conditions":[-1.489136E-1,7.213937E-1,-2.7788172E-2,7.2039247E-1,-2.7715994E-2,7.18086E-1,5.5110896E-1,1.4043398E-1,3.2233853E-2,-2.744498E-2,1.4008747E-1],"split_indices":[10,6,0,5,0,6,6,0,0,0,0],"split_type":[0,0,0,0,0,0,0,0,0,0,0],"sum_hessian":[1.0530314E3,2.6357642E2,7.89455E2,1.9501741E2,6.855899E1,1.364213E2,5.859611E1,1.35332E2,1.0892961E0,3.7390797E1,2.1205317E1],"tree_param":{"num_deleted":"0","num_feature":"18","num_nodes":"11","size_leaf_vector":"1"}},{"base_weights":[-5.55776E-1],"categories":[],"categories_nodes":[],"categories_segments":[],"categories_sizes":[],"default_left":[0],"id":34,"left_children":[-1],"loss_changes":[0E0],"parents":[2147483647],"right_children":[-1],"split_conditions":[-2.7788801E-2],"split_indices":[0],"split_type":[0],"sum_hessian":[9.817505E2],"tree_param":{"num_deleted":"0","num_feature":"18","num_nodes":"1","size_leaf_vector":"1"}},{"base_weights":[-5.5577904E-1],"categories":[],"categories_nodes":[],"categories_segments":[],"categories_sizes":[],"default_left":[0],"id":35,"left_children":[-1],"loss_changes":[0E0],"parents":[2147483647],"right_children":[-1],"split_conditions":[-2.7788952E-2],"split_indices":[0],"split_type":[0],"sum_hessian":[9.8919586E2],"tree_param":{"num_deleted":"0","num_feature":"18","num_nodes":"1","size_leaf_vector":"1"}},{"base_weights":[4.490262E-3,-2.7726594E-2,1.0575716E0,1.2811412E-1,-2.7804563E-2],"categories":[],"categories_nodes":[],"categories_segments":[],"categories_sizes":[],"default_left":[0,0,0,0,0],"id":36,"left_children":[1,-1,3,-1,-1],"loss_changes":[6.226346E2,0E0,8.9194226E2,0E0,0E0],"parents":[2147483647,0,0,2,2],"right_children":[2,-1,4,-1,-1],"split_conditions":[2.1904649E-1,-2.7726594E-2,4.5015523E-1,1.2811412E-1,-2.7804563E-2],"split_indices":[10,0,6,0,0],"split_type":[0,0,0,0,0],"sum_hessian":[1.0556545E3,6.8989905E2,3.6575546E2,1.8896307E2,1.767924E2],"tree_param":{"num_deleted":"0","num_feature":"18","num_nodes":"5","size_leaf_vector":"1"}},{"base_weights":[-5.538345E-1],"categories":[],"categories_nodes":[],"categories_segments":[],"categories_sizes":[],"default_left":[0],"id":37,"left_children":[-1],"loss_changes":[0E0],"parents":[2147483647],"right_children":[-1],"split_conditions":[-2.7691726E-2],"split_indices":[0],"split_type":[0],"sum_hessian":[9.490417E2],"tree_param":{"num_deleted":"0","num_feature":"18","num_nodes":"1","size_leaf_vector":"1"}},{"base_weights":[-5.538353E-1],"categories":[],"categories_nodes":[],"categories_segments":[],"categories_sizes":[],"default_left":[0],"id":38,"left_children":[-1],"loss_changes":[0E0],"parents":[2147483647],"right_children":[-1],"split_conditions":[-2.7691765E-2],"split_indices":[0],"split_type":[0],"sum_hessian":[9.553714E2],"tree_param":{"num_deleted":"0","num_feature":"18","num_nodes":"1","size_leaf_vector":"1"}},{"base_weights":[1.2951073E-1,-2.7683923E-2,1.0623127E0,2.116473E0,-2.8042406E-2,2.5779133E0,3.6319938E-1,1.2935252E-1,2.742971E-2,-2.737595E-2,1.3875796E-1],"categories":[],"categories_nodes":[],"categories_segments":[],"categories_sizes":[],"default_left":[0,0,0,0,0,0,0,0,0,0,0],"id":39,"left_children":[1,-1,3,5,-1,7,9,-1,-1,-1,-1],"loss_changes":[6.8241895E2,0E0,7.757294E2,2.2125891E2,0E0,2.6091309E0,1.2977237E2,0E0,0E0,0E0,0E0],"parents":[2147483647,0,0,2,2,3,3,5,5,6,6],"right_children":[2,-1,4,6,-1,8,10,-1,-1,-1,-1],"split_conditions":[7.2039247E-1,-2.7683923E-2,5.5110896E-1,2.1904649E-1,-2.8042406E-2,5.4653215E-1,4.5015523E-1,1.2935252E-1,2.742971E-2,-2.737595E-2,1.3875796E-1],"split_indices":[5,0,6,10,0,6,6,0,0,0,0],"split_type":[0,0,0,0,0,0,0,0,0,0,0],"sum_hessian":[1.0689073E3,6.1724225E2,4.5166507E2,2.736436E2,1.7802148E2,2.16257E2,5.7386593E1,2.1501407E2,1.2429458E0,4.2218533E1,1.516806E1],"tree_param":{"num_deleted":"0","num_feature":"18","num_nodes":"11","size_leaf_vector":"1"}},{"base_weights":[8.5422784E-1,1.2882742E0,-2.7588686E-2,-5.289711E-1,1.5821328E0,-2.7549764E-2,2.8282663E-1,2.0202093E0,5.491583E-1,5.6130644E-2,-1.8965866E-2,2.367802E0,1.1558899E0,-2.7903242E-2,2.2937179E0,1.1856365E-1,3.0233357E-2,-2.7401347E-2,1.16376415E-1,2.6689602E-2,2.312673E0,1.16599895E-1,2.647305E-2],"categories":[],"categories_nodes":[],"categories_segments":[],"categories_sizes":[],"default_left":[0,0,0,0,0,0,0,0,0,0,0,0,0,0,0,0,0,0,0,0,0,0,0],"id":40,"left_children":[1,3,-1,5,7,-1,9,11,13,-1,-1,15,17,-1,19,-1,-1,-1,-1,-1,21,-1,-1],"loss_changes":[7.665329E2,5.130497E2,0E0,2.5563583E0,3.7263403E2,0E0,2.7652738E0,1.7138818E2,4.7902405E2,0E0,0E0,1.0900879E0,3.370383E2,0E0,1.9755249E0,0E0,0E0,0E0,0E0,0E0,2.0355225E0,0E0,0E0],"parents":[2147483647,0,0,1,1,3,3,4,4,6,6,7,7,8,8,11,11,12,12,14,14,20,20],"right_children":[2,4,-1,6,8,-1,10,12,14,-1,-1,16,18,-1,20,-1,-1,-1,-1,-1,22,-1,-1],"split_conditions":[7.213937E-1,-1.489136E-1,-2.7588686E-2,-1.5181403E-1,7.2039247E-1,-2.7549764E-2,3.8890463E-1,2.1904649E-1,5.4653215E-1,5.6130644E-2,-1.8965866E-2,7.18086E-1,4.5015523E-1,-2.7903242E-2,5.5110896E-1,1.1856365E-1,3.0233357E-2,-2.7401347E-2,1.16376415E-1,2.6689602E-2,7.18086E-1,1.16599895E-1,2.647305E-2],"split_indices":[6,10,0,10,5,0,16,10,6,0,0,6,6,0,6,0,0,0,0,0,6,0,0],"split_type":[0,0,0,0,0,0,0,0,0,0,0,0,0,0,0,0,0,0,0,0,0,0,0],"sum_hessian":[1.2538907E3,9.5817615E2,2.957146E2,1.3326357E2,8.249126E2,1.3005638E2,3.2071896E0,5.78584E2,2.4632861E2,1.1073432E0,2.0998464E0,4.113977E2,1.6718626E2,1.5110599E2,9.5222626E1,4.1024512E2,1.1525799E0,6.8336525E1,9.884973E1,1.3253956E0,9.389723E1,9.258611E1,1.3111191E0],"tree_param":{"num_deleted":"0","num_feature":"18","num_nodes":"23","size_leaf_vector":"1"}},{"base_weights":[7.801446E-1,-2.7697017E-2,1.1580365E-1],"categories":[],"categories_nodes":[],"categories_segments":[],"categories_sizes":[],"default_left":[0,0,0],"id":41,"left_children":[1,-1,-1],"loss_changes":[2.531766E3,0E0,0E0],"parents":[2147483647,0,0],"right_children":[2,-1,-1],"split_conditions":[7.18086E-1,-2.7697017E-2,1.1580365E-1],"split_indices":[6,0,0],"split_type":[0,0,0],"sum_hessian":[1.2339487E3,6.607074E2,5.732414E2],"tree_param":{"num_deleted":"0","num_feature":"18","num_nodes":"3","size_leaf_vector":"1"}},{"base_weights":[-5.4737937E-2,1.3093051E0,-2.7690468E-2,1.7101948E0,2.9778785E-1,1.7473199E0,1.0702391E0,8.597235E-1,2.0193647E-1,4.5961377E-1,1.7616234E0,-8.257267E-2,1.3042771E0,-1.7902147E-2,1.1176654E0,3.215222E-1,-1.5493453E-1,-1.5936188E-2,5.314173E-2,1.771201E0,7.4578524E-3,-1.5029912E-2,9.204107E-3,1.587806E0,3.4510553E-1,1.3892355E0,-1.6104627E-2,-1.8832083E-1,5.04507E-1,5.100202E-1,-3.2900468E-1,9.17008E-3,8.897594E-2,8.839094E-2,3.1957123E-2,4.692753E-2,-1.6946996E-2,7.7694766E-2,8.394791E-3,3.7699122E-2,-1.8352626E-2,-2.0902408E-2,2.950873E-2,-1.707325E-2,5.7088442E-2,-2.2358272E-2,2.0870715E-2],"categories":[],"categories_nodes":[],"categories_segments":[],"categories_sizes":[],"default_left":[0,0,0,0,0,0,0,0,0,0,0,0,0,0,0,0,0,0,0,0,0,0,0,0,0,0,0,0,0,0,0,0,0,0,0,0,0,0,0,0,0,0,0,0,0,0,0],"id":42,"left_children":[1,3,-1,5,7,9,11,13,15,17,19,21,23,-1,25,27,29,-1,-1,31,-1,-1,-1,33,35,37,-1,39,41,43,45,-1,-1,-1,-1,-1,-1,-1,-1,-1,-1,-1,-1,-1,-1,-1,-1],"loss_changes":[7.11337E2,1.1299826E2,0E0,2.8876343E0,4.1709447E0,2.6474E0,3.7664433E0,3.995718E0,3.0463023E0,1.942105E0,2.597229E0,2.4305667E-1,2.5337963E0,0E0,4.2356234E0,5.031726E0,2.2857394E0,0E0,0E0,2.1049194E0,0E0,0E0,0E0,3.163376E-1,1.8863329E0,1.4161758E0,0E0,2.7531862E0,3.345766E0,2.6428676E0,1.5192659E0,0E0,0E0,0E0,0E0,0E0,0E0,0E0,0E0,0E0,0E0,0E0,0E0,0E0,0E0,0E0,0E0],"parents":[2147483647,0,0,1,1,3,3,4,4,5,5,6,6,7,7,8,8,9,9,10,10,11,11,12,12,14,14,15,15,16,16,19,19,23,23,24,24,25,25,27,27,28,28,29,29,30,30],"right_children":[2,4,-1,6,8,10,12,14,16,18,20,22,24,-1,26,28,30,-1,-1,32,-1,-1,-1,34,36,38,-1,40,42,44,46,-1,-1,-1,-1,-1,-1,-1,-1,-1,-1,-1,-1,-1,-1,-1,-1],"split_conditions":[-1.489136E-1,7.234731E-1,-2.7690468E-2,8.0898553E-1,3.7242925E-1,2.0648558E-1,1.3141595E-1,1.5656109E-1,2.3032765E-1,7.2325474E-1,9.931886E-1,5.0220394E-1,5.9412825E-1,-1.7902147E-2,6.2011355E-1,1.02183826E-1,1.1913402E-1,-1.5936188E-2,5.314173E-2,2.872307E-3,7.4578524E-3,-1.5029912E-2,9.204107E-3,4.830515E-1,5.3046125E-1,4.5750648E-1,-1.6104627E-2,1.9112481E-1,7.4920155E-2,8.383631E-2,7.9879403E-1,9.17008E-3,8.897594E-2,8.839094E-2,3.1957123E-2,4.692753E-2,-1.6946996E-2,7.7694766E-2,8.394791E-3,3.7699122E-2,-1.8352626E-2,-2.0902408E-2,2.950873E-2,-1.707325E-2,5.7088442E-2,-2.2358272E-2,2.0870715E-2],"split_indices":[10,5,0,16,16,14,8,8,1,4,12,12,14,0,8,1,7,0,0,9,0,0,0,7,13,9,0,11,7,7,4,0,0,0,0,0,0,0,0,0,0,0,0,0,0,0,0],"split_type":[0,0,0,0,0,0,0,0,0,0,0,0,0,0,0,0,0,0,0,0,0,0,0,0,0,0,0,0,0,0,0,0,0,0,0,0,0,0,0,0,0,0,0,0,0,0,0],"sum_hessian":[1.0428588E3,2.789151E2,7.6394366E2,1.9925471E2,7.966037E1,1.8669385E2,1.2560868E1,1.0446669E1,6.92137E1,2.4149568E0,1.842789E2,2.2289264E0,1.0331943E1,1.758161E0,8.688508E0,5.1915962E1,1.7297735E1,1.2603517E0,1.1546052E0,1.8309293E2,1.1859641E0,1.1562476E0,1.0726788E0,7.468791E0,2.863151E0,7.339254E0,1.3492539E0,1.3703976E1,3.8211987E1,3.1883075E0,1.4109428E1,1.0742587E0,1.8201868E2,5.5518274E0,1.9169639E0,1.3338809E0,1.5292702E0,6.227395E0,1.1118586E0,1.6717441E0,1.2032231E1,2.9171627E0,3.5294827E1,1.5536945E0,1.634613E0,1.2527241E1,1.5821873E0],"tree_param":{"num_deleted":"0","num_feature":"18","num_nodes":"47","size_leaf_vector":"1"}},{"base_weights":[-5.538324E-1],"categories":[],"categories_nodes":[],"categories_segments":[],"categories_sizes":[],"default_left":[0],"id":43,"left_children":[-1],"loss_changes":[0E0],"parents":[2147483647],"right_children":[-1],"split_conditions":[-2.7691621E-2],"split_indices":[0],"split_type":[0],"sum_hessian":[9.5480493E2],"tree_param":{"num_deleted":"0","num_feature":"18","num_nodes":"1","size_leaf_vector":"1"}},{"base_weights":[-5.53842E-1],"categories":[],"categories_nodes":[],"categories_segments":[],"categories_sizes":[],"default_left":[0],"id":44,"left_children":[-1],"loss_changes":[0E0],"parents":[2147483647],"right_children":[-1],"split_conditions":[-2.76921E-2],"split_indices":[0],"split_type":[0],"sum_hessian":[9.573933E2],"tree_param":{"num_deleted":"0","num_feature":"18","num_nodes":"1","size_leaf_vector":"1"}},{"base_weights":[1.3037299E-2,-2.7628485E-2,1.0065031E0,1.1325338E-1,-2.7691856E-2],"categories":[],"categories_nodes":[],"categories_segments":[],"categories_sizes":[],"default_left":[0,0,0,0,0],"id":45,"left_children":[1,-1,3,-1,-1],"loss_changes":[5.893773E2,0E0,7.4850037E2,0E0,0E0],"parents":[2147483647,0,0,2,2],"right_children":[2,-1,4,-1,-1],"split_conditions":[2.1904649E-1,-2.7628485E-2,4.5015523E-1,1.1325338E-1,-2.7691856E-2],"split_indices":[10,0,6,0,0],"split_type":[0,0,0,0,0],"sum_hessian":[1.04689E3,6.673777E2,3.7951236E2,2.0982039E2,1.6969196E2],"tree_param":{"num_deleted":"0","num_feature":"18","num_nodes":"5","size_leaf_vector":"1"}},{"base_weights":[-5.5192053E-1],"categories":[],"categories_nodes":[],"categories_segments":[],"categories_sizes":[],"default_left":[0],"id":46,"left_children":[-1],"loss_changes":[0E0],"parents":[2147483647],"right_children":[-1],"split_conditions":[-2.7596027E-2],"split_indices":[0],"split_type":[0],"sum_hessian":[9.330773E2],"tree_param":{"num_deleted":"0","num_feature":"18","num_nodes":"1","size_leaf_vector":"1"}},{"base_weights":[-5.519317E-1],"categories":[],"categories_nodes":[],"categories_segments":[],"categories_sizes":[],"default_left":[0],"id":47,"left_children":[-1],"loss_changes":[0E0],"parents":[2147483647],"right_children":[-1],"split_conditions":[-2.7596584E-2],"split_indices":[0],"split_type":[0],"sum_hessian":[9.3186835E2],"tree_param":{"num_deleted":"0","num_feature":"18","num_nodes":"1","size_leaf_vector":"1"}},{"base_weights":[1.2768497E-1,-2.7587632E-2,9.920879E-1,1.8970523E0,-2.7927775E-2,2.2808688E0,3.490807E-1,1.1438717E-1,3.8452737E-2,-2.7272696E-2,1.22237325E-1],"categories":[],"categories_nodes":[],"categories_segments":[],"categories_sizes":[],"default_left":[0,0,0,0,0,0,0,0,0,0,0],"id":48,"left_children":[1,-1,3,5,-1,7,9,-1,-1,-1,-1],"loss_changes":[6.3736536E2,0E0,6.711991E2,1.7850732E2,0E0,7.520752E-1,1.1595184E2,0E0,0E0,0E0,0E0],"parents":[2147483647,0,0,2,2,3,3,5,5,6,6],"right_children":[2,-1,4,6,-1,8,10,-1,-1,-1,-1],"split_conditions":[7.2039247E-1,-2.7587632E-2,5.5110896E-1,2.1904649E-1,-2.7927775E-2,5.4653215E-1,4.5015523E-1,1.1438717E-1,3.8452737E-2,-2.7272696E-2,1.22237325E-1],"split_indices":[5,0,6,10,0,6,6,0,0,0,0],"split_type":[0,0,0,0,0,0,0,0,0,0,0],"sum_hessian":[1.0833002E3,6.0674695E2,4.7655322E2,3.0078815E2,1.7576509E2,2.406468E2,6.0141346E1,2.3904654E2,1.6002667E0,4.2668167E1,1.7473179E1],"tree_param":{"num_deleted":"0","num_feature":"18","num_nodes":"11","size_leaf_vector":"1"}},{"base_weights":[8.0990875E-1,1.1948158E0,-2.74849E-2,-5.3403777E-1,1.4474323E0,-2.7462674E-2,8.183705E-2,1.8243374E0,5.203331E-1,3.5233475E-2,-1.858784E-2,2.1144953E0,1.0933007E0,-2.779427E-2,2.0620167E0,1.0586107E-1,2.9444147E-2,-2.7297426E-2,2.0834727E0,1.03979304E-1,8.940299E-3,1.0498357E-1,3.4546833E-2],"categories":[],"categories_nodes":[],"categories_segments":[],"categories_sizes":[],"default_left":[0,0,0,0,0,0,0,0,0,0,0,0,0,0,0,0,0,0,0,0,0,0,0],"id":49,"left_children":[1,3,-1,5,7,-1,9,11,13,-1,-1,15,17,-1,19,-1,-1,-1,21,-1,-1,-1,-1],"loss_changes":[6.738567E2,4.387693E2,0E0,1.2499352E0,3.0490405E2,0E0,1.3837085E0,1.29604E2,4.232298E2,0E0,0E0,6.003418E-1,2.9131546E2,0E0,3.095337E0,0E0,0E0,0E0,1.0679932E0,0E0,0E0,0E0,0E0],"parents":[2147483647,0,0,1,1,3,3,4,4,6,6,7,7,8,8,11,11,12,12,14,14,18,18],"right_children":[2,4,-1,6,8,-1,10,12,14,-1,-1,16,18,-1,20,-1,-1,-1,22,-1,-1,-1,-1],"split_conditions":[7.213937E-1,-1.489136E-1,-2.74849E-2,-1.5181403E-1,7.2039247E-1,-2.7462674E-2,4.161495E-1,2.1904649E-1,5.4653215E-1,3.5233475E-2,-1.858784E-2,7.18086E-1,4.5015523E-1,-2.779427E-2,7.18086E-1,1.0586107E-1,2.9444147E-2,-2.7297426E-2,7.18086E-1,1.03979304E-1,8.940299E-3,1.0498357E-1,3.4546833E-2],"split_indices":[6,10,0,10,5,0,3,10,6,0,0,6,6,0,6,0,0,0,6,0,0,0,0],"split_type":[0,0,0,0,0,0,0,0,0,0,0,0,0,0,0,0,0,0,0,0,0,0,0],"sum_hessian":[1.285397E3,1.0018833E3,2.8351364E2,1.2758756E2,8.742958E2,1.24616974E2,2.970589E0,6.209042E2,2.5339157E2,1.0185233E0,1.9520655E0,4.4312836E2,1.7777583E2,1.4959895E2,1.0379261E2,4.4195087E2,1.1774881E0,6.711473E1,1.1066111E2,1.0272993E2,1.062685E0,1.0888669E2,1.7744234E0],"tree_param":{"num_deleted":"0","num_feature":"18","num_nodes":"23","size_leaf_vector":"1"}},{"base_weights":[7.3907334E-1,-2.7603215E-2,2.0727794E0,1.052854E0,1.0400243E-1,-1.5403303E-2,1.4063631E0,9.577738E-3,1.6560712E0,1.0273697E-1,9.863304E-3],"categories":[],"categories_nodes":[],"categories_segments":[],"categories_sizes":[],"default_left":[0,0,0,0,0,0,0,0,0,0,0],"id":50,"left_children":[1,-1,3,5,-1,-1,7,-1,9,-1,-1],"loss_changes":[2.1836792E3,0E0,2.433838E0,3.530727E0,0E0,0E0,1.2876234E0,0E0,2.0708132E0,0E0,0E0],"parents":[2147483647,0,0,2,2,3,3,6,6,8,8],"right_children":[2,-1,4,6,-1,-1,8,-1,10,-1,-1],"split_conditions":[7.18086E-1,-2.7603215E-2,7.213937E-1,3.6296877E-1,1.0400243E-1,-1.5403303E-2,4.0328684E-1,9.577738E-3,3.110531E-1,1.0273697E-1,9.863304E-3],"split_indices":[6,0,6,15,0,0,0,0,10,0,0],"split_type":[0,0,0,0,0,0,0,0,0,0,0],"sum_hessian":[1.2664432E3,6.437887E2,6.226545E2,5.438347E0,6.172161E2,1.1478741E0,4.290473E0,1.0328519E0,3.257621E0,2.2376094E0,1.0200115E0],"tree_param":{"num_deleted":"0","num_feature":"18","num_nodes":"11","size_leaf_vector":"1"}},{"base_weights":[-5.4379478E-2,1.228566E0,-2.7593872E-2,1.7860432E0,-2.7744016E-2,2.234577E0,5.4649454E-1,1.1214794E-1,2.9485522E-2,-2.7347988E-2,1.173568E-1],"categories":[],"categories_nodes":[],"categories_segments":[],"categories_sizes":[],"default_left":[0,0,0,0,0,0,0,0,0,0,0],"id":51,"left_children":[1,3,-1,5,-1,7,9,-1,-1,-1,-1],"loss_changes":[6.5750116E2,2.8718936E2,0E0,1.2084082E2,0E0,8.955078E-1,1.1874549E2,0E0,0E0,0E0,0E0],"parents":[2147483647,0,0,1,1,3,3,5,5,6,6],"right_children":[2,4,-1,6,-1,8,10,-1,-1,-1,-1],"split_conditions":[-1.489136E-1,7.213937E-1,-2.7593872E-2,7.2039247E-1,-2.7744016E-2,7.18086E-1,5.5110896E-1,1.1214794E-1,2.9485522E-2,-2.7347988E-2,1.173568E-1],"split_indices":[10,6,0,5,0,6,6,0,0,0,0],"split_type":[0,0,0,0,0,0,0,0,0,0,0],"sum_hessian":[1.0280795E3,2.868591E2,7.412204E2,2.1854417E2,6.831491E1,1.5988622E2,5.865796E1,1.5871382E2,1.1723957E0,3.6928852E1,2.1729105E1],"tree_param":{"num_deleted":"0","num_feature":"18","num_nodes":"11","size_leaf_vector":"1"}},{"base_weights":[-5.5192834E-1],"categories":[],"categories_nodes":[],"categories_segments":[],"categories_sizes":[],"default_left":[0],"id":52,"left_children":[-1],"loss_changes":[0E0],"parents":[2147483647],"right_children":[-1],"split_conditions":[-2.7596418E-2],"split_indices":[0],"split_type":[0],"sum_hessian":[9.3114E2],"tree_param":{"num_deleted":"0","num_feature":"18","num_nodes":"1","size_leaf_vector":"1"}},{"base_weights":[-5.519193E-1],"categories":[],"categories_nodes":[],"categories_segments":[],"categories_sizes":[],"default_left":[0],"id":53,"left_children":[-1],"loss_changes":[0E0],"parents":[2147483647],"right_children":[-1],"split_conditions":[-2.7595965E-2],"split_indices":[0],"split_type":[0],"sum_hessian":[9.340778E2],"tree_param":{"num_deleted":"0","num_feature":"18","num_nodes":"1","size_leaf_vector":"1"}},{"base_weights":[1.5120935E-2,-2.7533507E-2,9.4832367E-1,1.0176039E-1,-2.7588991E-2],"categories":[],"categories_nodes":[],"categories_segments":[],"categories_sizes":[],"default_left":[0,0,0,0,0],"id":54,"left_children":[1,-1,3,-1,-1],"loss_changes":[5.546037E2,0E0,6.475284E2,0E0,0E0],"parents":[2147483647,0,0,2,2],"right_children":[2,-1,4,-1,-1],"split_conditions":[2.1904649E-1,-2.7533507E-2,4.5015523E-1,1.0176039E-1,-2.7588991E-2],"split_indices":[10,0,6,0,0],"split_type":[0,0,0,0,0],"sum_hessian":[1.0484014E3,6.529403E2,3.95461E2,2.2910712E2,1.6635387E2],"tree_param":{"num_deleted":"0","num_feature":"18","num_nodes":"5","size_leaf_vector":"1"}},{"base_weights":[-5.50043E-1],"categories":[],"categories_nodes":[],"categories_segments":[],"categories_sizes":[],"default_left":[0],"id":55,"left_children":[-1],"loss_changes":[0E0],"parents":[2147483647],"right_children":[-1],"split_conditions":[-2.750215E-2],"split_indices":[0],"split_type":[0],"sum_hessian":[9.034236E2],"tree_param":{"num_deleted":"0","num_feature":"18","num_nodes":"1","size_leaf_vector":"1"}},{"base_weights":[-5.500398E-1],"categories":[],"categories_nodes":[],"categories_segments":[],"categories_sizes":[],"default_left":[0],"id":56,"left_children":[-1],"loss_changes":[0E0],"parents":[2147483647],"right_children":[-1],"split_conditions":[-2.7501991E-2],"split_indices":[0],"split_type":[0],"sum_hessian":[9.0454004E2],"tree_param":{"num_deleted":"0","num_feature":"18","num_nodes":"1","size_leaf_vector":"1"}},{"base_weights":[1.13056734E-1,-2.7491245E-2,9.099025E-1,1.7162689E0,-2.7809454E-2,2.0439177E0,3.5634968E-1,1.0249504E-1,2.5363628E-2,-2.7164722E-2,1.0907072E-1],"categories":[],"categories_nodes":[],"categories_segments":[],"categories_sizes":[],"default_left":[0,0,0,0,0,0,0,0,0,0,0],"id":57,"left_children":[1,-1,3,5,-1,7,9,-1,-1,-1,-1],"loss_changes":[5.673137E2,0E0,5.774862E2,1.3957062E2,0E0,1.2908936E0,1.0354951E2,0E0,0E0,0E0,0E0],"parents":[2147483647,0,0,2,2,3,3,5,5,6,6],"right_children":[2,-1,4,6,-1,8,10,-1,-1,-1,-1],"split_conditions":[7.2039247E-1,-2.7491245E-2,5.5110896E-1,2.1904649E-1,-2.7809454E-2,5.4653215E-1,4.5015523E-1,1.0249504E-1,2.5363628E-2,-2.7164722E-2,1.0907072E-1],"split_indices":[5,0,6,10,0,6,6,0,0,0,0],"split_type":[0,0,0,0,0,0,0,0,0,0,0],"sum_hessian":[1.0720745E3,5.854004E2,4.86674E2,3.1387094E2,1.7280309E2,2.525262E2,6.1344734E1,2.5121407E2,1.3121369E0,4.1560364E1,1.9784374E1],"tree_param":{"num_deleted":"0","num_feature":"18","num_nodes":"11","size_leaf_vector":"1"}},{"base_weights":[7.602634E-1,1.1111499E0,-2.7390946E-2,-2.7363325E-2,1.3318533E0,1.6586227E0,5.1551497E-1,1.9079754E0,9.942729E-1,-2.7685061E-2,1.8662736E0,2.9217903E-2,1.912635E0,-2.7194286E-2,1.8867669E0,2.3052912E-2,1.8803287E0,9.574451E-2,2.8445292E-2,9.503808E-2,3.3207707E-2,9.462098E-2,2.5181353E-2],"categories":[],"categories_nodes":[],"categories_segments":[],"categories_sizes":[],"default_left":[0,0,0,0,0,0,0,0,0,0,0,0,0,0,0,0,0,0,0,0,0,0,0],"id":58,"left_children":[1,3,-1,-1,5,7,9,11,13,-1,15,-1,17,-1,19,-1,21,-1,-1,-1,-1,-1,-1],"loss_changes":[6.011685E2,3.7846863E2,0E0,0E0,2.4218616E2,1.0581421E2,3.7928302E2,1.7913818E0,2.4748642E2,0E0,1.4229736E0,0E0,3.3361816E-1,0E0,6.852722E-1,0E0,9.523926E-1,0E0,0E0,0E0,0E0,0E0,0E0],"parents":[2147483647,0,0,1,1,4,4,5,5,6,6,7,7,8,8,10,10,12,12,14,14,16,16],"right_children":[2,4,-1,-1,6,8,10,12,14,-1,16,-1,18,-1,20,-1,22,-1,-1,-1,-1,-1,-1],"split_conditions":[7.213937E-1,-1.5181403E-1,-2.7390946E-2,-2.7363325E-2,7.2039247E-1,2.1904649E-1,5.4653215E-1,-1.489136E-1,4.5015523E-1,-2.7685061E-2,5.5110896E-1,2.9217903E-2,7.18086E-1,-2.7194286E-2,7.18086E-1,2.3052912E-2,7.18086E-1,9.574451E-2,2.8445292E-2,9.503808E-2,3.3207707E-2,9.462098E-2,2.5181353E-2],"split_indices":[6,10,0,0,5,10,6,10,6,0,6,0,6,0,6,0,6,0,0,0,0,0,0],"split_type":[0,0,0,0,0,0,0,0,0,0,0,0,0,0,0,0,0,0,0,0,0,0,0],"sum_hessian":[1.307442E3,1.0310251E3,2.764168E2,1.2092051E2,9.101047E2,6.492048E2,2.6089987E2,4.7067337E2,1.785314E2,1.45956E2,1.1494388E2,2.0945647E0,4.6857883E2,6.56971E1,1.12834305E2,1.4730493E0,1.1347083E2,4.6736935E2,1.209465E0,1.1100898E2,1.8253291E0,1.1211161E2,1.3592204E0],"tree_param":{"num_deleted":"0","num_feature":"18","num_nodes":"23","size_leaf_vector":"1"}},{"base_weights":[7.038353E-1,-2.7507618E-2,1.8793548E0,9.6298057E-1,9.425374E-2,1.3411272E0,-1.5939645E-2,5.479806E-3,8.6969614E-2],"categories":[],"categories_nodes":[],"categories_segments":[],"categories_sizes":[],"default_left":[0,0,0,0,0,0,0,0,0],"id":59,"left_children":[1,-1,3,5,-1,7,-1,-1,-1],"loss_changes":[1.8873254E3,0E0,1.6479492E0,3.4049935E0,0E0,2.2301292E0,0E0,0E0,0E0],"parents":[2147483647,0,0,2,2,3,3,5,5],"right_children":[2,-1,4,6,-1,8,-1,-1,-1],"split_conditions":[7.18086E-1,-2.7507618E-2,7.213937E-1,3.110531E-1,9.425374E-2,4.212939E-1,-1.5939645E-2,5.479806E-3,8.6969614E-2],"split_indices":[6,0,6,10,0,0,0,0,0],"split_type":[0,0,0,0,0,0,0,0,0],"sum_hessian":[1.2786339E3,6.1892566E2,6.597082E2,5.142895E0,6.545653E2,3.9355345E0,1.2073606E0,1.2733171E0,2.6622174E0],"tree_param":{"num_deleted":"0","num_feature":"18","num_nodes":"9","size_leaf_vector":"1"}},{"base_weights":[-5.4906715E-2,4.297005E-1,-4.6009102E-1,-4.7035357E-1,9.6344954E-1,-5.1891136E-1,7.076138E-2,-2.7340544E-2,-1.4066876E-1,1.2585938E0,2.0486496E-1,-2.7471552E-2,-2.8619754E-1,1.011098E0,-4.817659E-1,8.8935906E-1,-2.6506627E-2,9.134815E-1,1.4699731E0,-2.3749761E-2,2.6213202E-1,1.0898602E0,-5.036461E-1,1.2275004E0,1.0941521E-1,-7.639927E-2,-2.6665857E-2,1.322289E0,-1.9314097E-2,1.3133254E0,-1.2888768E-1,1.4908321E0,7.44173E-1,3.417649E-2,4.5918807E-1,8.132104E-2,-1.895622E-2,1.4767423E-1,-2.6981492E-2,1.3729353E0,-6.783652E-4,-2.0237332E-2,3.9530925E-2,2.9820854E-2,-2.0850537E-2,7.7878395E-3,7.528142E-2,7.570907E-2,4.4424664E-2,-2.5623484E-2,1.9149194E-2,2.5864152E-2,7.519887E-2,-1.4642969E-2,5.3240985E-2,8.521385E-3,-2.4258837E-2,2.684079E-2,-2.0790752E-2,3.2920297E-2,-1.670585E-2,7.4222244E-2,5.102554E-3],"categories":[],"categories_nodes":[],"categories_segments":[],"categories_sizes":[],"default_left":[0,0,0,0,0,0,0,0,0,0,0,0,0,0,0,0,0,0,0,0,0,0,0,0,0,0,0,0,0,0,0,0,0,0,0,0,0,0,0,0,0,0,0,0,0,0,0,0,0,0,0,0,0,0,0,0,0,0,0,0,0,0,0],"id":60,"left_children":[1,3,5,7,9,11,13,-1,15,17,19,-1,21,23,25,27,-1,29,31,-1,33,35,37,39,41,43,-1,45,-1,47,49,51,53,55,57,-1,-1,59,-1,61,-1,-1,-1,-1,-1,-1,-1,-1,-1,-1,-1,-1,-1,-1,-1,-1,-1,-1,-1,-1,-1,-1,-1],"loss_changes":[2.0101181E2,2.2443033E2,1.7444023E1,4.3148727E0,6.534189E1,3.4080658E0,2.9836714E1,0E0,1.4169305E1,1.4030273E1,3.366181E0,0E0,1.8588623E1,4.008232E0,7.169666E-1,5.890904E0,0E0,3.463237E1,8.442383E-1,0E0,3.4627953E0,7.350218E0,1.3158894E0,3.0912132E0,2.1437023E0,1.4537051E0,0E0,1.3694286E0,0E0,3.7618866E0,4.8762054E0,8.1463623E-1,2.1745613E0,2.6997786E0,3.0389051E0,0E0,0E0,1.0926923E0,0E0,2.0093002E0,0E0,0E0,0E0,0E0,0E0,0E0,0E0,0E0,0E0,0E0,0E0,0E0,0E0,0E0,0E0,0E0,0E0,0E0,0E0,0E0,0E0,0E0,0E0],"parents":[2147483647,0,0,1,1,2,2,3,3,4,4,5,5,6,6,8,8,9,9,10,10,12,12,13,13,14,14,15,15,17,17,18,18,20,20,21,21,22,22,23,23,24,24,25,25,27,27,29,29,30,30,31,31,32,32,33,33,34,34,37,37,39,39],"right_children":[2,4,6,8,10,12,14,-1,16,18,20,-1,22,24,26,28,-1,30,32,-1,34,36,38,40,42,44,-1,46,-1,48,50,52,54,56,58,-1,-1,60,-1,62,-1,-1,-1,-1,-1,-1,-1,-1,-1,-1,-1,-1,-1,-1,-1,-1,-1,-1,-1,-1,-1,-1,-1],"split_conditions":[5.4144025E-1,5.248773E-1,7.719729E-1,4.7577998E-1,7.2039247E-1,7.1431524E-1,6.362131E-1,-2.7340544E-2,3.4852496E-1,6.569826E-1,5.8542073E-2,-2.7471552E-2,5.814062E-1,7.42818E-1,6.678899E-1,7.234731E-1,-2.6506627E-2,4.4417724E-1,8.25717E-1,-2.3749761E-2,4.246766E-1,7.026197E-1,5.9570116E-1,6.2136483E-1,5.7358587E-1,6.9512814E-2,-2.6665857E-2,1.23303294E-1,-1.9314097E-2,3.8070062E-1,6.095171E-1,2.0648558E-1,2.3003742E-1,7.733577E-1,6.009381E-1,8.132104E-2,-1.895622E-2,4.6146476E-1,-2.6981492E-2,6.142719E-1,-6.783652E-4,-2.0237332E-2,3.9530925E-2,2.9820854E-2,-2.0850537E-2,7.7878395E-3,7.528142E-2,7.570907E-2,4.4424664E-2,-2.5623484E-2,1.9149194E-2,2.5864152E-2,7.519887E-2,-1.4642969E-2,5.3240985E-2,8.521385E-3,-2.4258837E-2,2.684079E-2,-2.0790752E-2,3.2920297E-2,-1.670585E-2,7.4222244E-2,5.102554E-3],"split_indices":[3,4,4,4,5,4,3,0,3,4,7,0,3,5,3,5,0,3,16,0,2,5,3,7,0,8,0,8,0,3,4,14,8,14,2,0,0,5,0,0,0,0,0,0,0,0,0,0,0,0,0,0,0,0,0,0,0,0,0,0,0,0,0],"split_type":[0,0,0,0,0,0,0,0,0,0,0,0,0,0,0,0,0,0,0,0,0,0,0,0,0,0,0,0,0,0,0,0,0,0,0,0,0,0,0,0,0,0,0,0,0,0,0,0,0,0,0,0,0,0,0,0,0,0,0,0,0,0,0],"sum_hessian":[1.02170825E3,4.652277E2,5.564806E2,1.7323036E2,2.919973E2,5.0099142E2,5.548915E1,1.4008469E2,3.314567E1,2.097358E2,8.2261536E1,4.417026E2,5.92888E1,2.023004E1,3.525911E1,8.741962E0,2.4403708E1,8.168796E1,1.2804784E2,5.824159E0,7.643738E1,7.543021E0,5.174578E1,1.6023163E1,4.2068768E0,4.258097E0,3.1001013E1,6.499559E0,2.2424035E0,5.885264E1,2.2835316E1,1.2344603E2,4.601806E0,3.5984154E1,4.0453224E1,5.446472E0,2.0965488E0,2.5466397E0,4.919914E1,1.4247333E1,1.7758304E0,2.6286485E0,1.5782281E0,1.1787235E0,3.0793738E0,1.1339755E0,5.3655834E0,3.8218956E1,2.0633684E1,1.3052772E1,9.782544E0,2.1821778E0,1.2126385E2,1.1072878E0,3.4945183E0,2.9037954E1,6.9461975E0,3.7511787E1,2.9414372E0,1.0582466E0,1.4883931E0,1.2943598E1,1.3037348E0],"tree_param":{"num_deleted":"0","num_feature":"18","num_nodes":"63","size_leaf_vector":"1"}},{"base_weights":[-5.500371E-1],"categories":[],"categories_nodes":[],"categories_segments":[],"categories_sizes":[],"default_left":[0],"id":61,"left_children":[-1],"loss_changes":[0E0],"parents":[2147483647],"right_children":[-1],"split_conditions":[-2.7501855E-2],"split_indices":[0],"split_type":[0],"sum_hessian":[9.00196E2],"tree_param":{"num_deleted":"0","num_feature":"18","num_nodes":"1","size_leaf_vector":"1"}},{"base_weights":[-5.500405E-1],"categories":[],"categories_nodes":[],"categories_segments":[],"categories_sizes":[],"default_left":[0],"id":62,"left_children":[-1],"loss_changes":[0E0],"parents":[2147483647],"right_children":[-1],"split_conditions":[-2.7502025E-2],"split_indices":[0],"split_type":[0],"sum_hessian":[9.02228E2],"tree_param":{"num_deleted":"0","num_feature":"18","num_nodes":"1","size_leaf_vector":"1"}},{"base_weights":[1.2294612E-2,-2.7438909E-2,8.8938946E-1,9.241494E-2,-2.7480511E-2],"categories":[],"categories_nodes":[],"categories_segments":[],"categories_sizes":[],"default_left":[0,0,0,0,0],"id":63,"left_children":[1,-1,3,-1,-1],"loss_changes":[5.0632446E2,0E0,5.5488245E2,0E0,0E0],"parents":[2147483647,0,0,2,2],"right_children":[2,-1,4,-1,-1],"split_conditions":[2.1904649E-1,-2.7438909E-2,4.5015523E-1,9.241494E-2,-2.7480511E-2],"split_indices":[10,0,6,0,0],"split_type":[0,0,0,0,0],"sum_hessian":[1.0268844E3,6.2649396E2,4.0039044E2,2.4010606E2,1.602844E2],"tree_param":{"num_deleted":"0","num_feature":"18","num_nodes":"5","size_leaf_vector":"1"}},{"base_weights":[-5.4821897E-1],"categories":[],"categories_nodes":[],"categories_segments":[],"categories_sizes":[],"default_left":[0],"id":64,"left_children":[-1],"loss_changes":[0E0],"parents":[2147483647],"right_children":[-1],"split_conditions":[-2.7410949E-2],"split_indices":[0],"split_type":[0],"sum_hessian":[8.7346375E2],"tree_param":{"num_deleted":"0","num_feature":"18","num_nodes":"1","size_leaf_vector":"1"}},{"base_weights":[-5.4821944E-1],"categories":[],"categories_nodes":[],"categories_segments":[],"categories_sizes":[],"default_left":[0],"id":65,"left_children":[-1],"loss_changes":[0E0],"parents":[2147483647],"right_children":[-1],"split_conditions":[-2.7410973E-2],"split_indices":[0],"split_type":[0],"sum_hessian":[8.798825E2],"tree_param":{"num_deleted":"0","num_feature":"18","num_nodes":"1","size_leaf_vector":"1"}},{"base_weights":[1.1805825E-1,-2.7400319E-2,8.6756486E-1,1.5777564E0,-2.7706508E-2,1.8588631E0,3.3026436E-1,9.318948E-2,2.438403E-2,-2.7062995E-2,9.880016E-2],"categories":[],"categories_nodes":[],"categories_segments":[],"categories_sizes":[],"default_left":[0,0,0,0,0,0,0,0,0,0,0],"id":66,"left_children":[1,-1,3,5,-1,7,9,-1,-1,-1,-1],"loss_changes":[5.3987115E2,0E0,5.145781E2,1.18459595E2,0E0,9.614868E-1,9.2375755E1,0E0,0E0,0E0,0E0],"parents":[2147483647,0,0,2,2,3,3,5,5,6,6],"right_children":[2,-1,4,6,-1,8,10,-1,-1,-1,-1],"split_conditions":[7.2039247E-1,-2.7400319E-2,5.5110896E-1,2.1904649E-1,-2.7706508E-2,5.4653215E-1,4.5015523E-1,9.318948E-2,2.438403E-2,-2.7062995E-2,9.880016E-2],"split_indices":[5,0,6,10,0,6,6,0,0,0,0],"split_type":[0,0,0,0,0,0,0,0,0,0,0],"sum_hessian":[1.0794774E3,5.716964E2,5.0778104E2,3.3855164E2,1.692294E2,2.758926E2,6.265903E1,2.7454694E2,1.3456671E0,4.140405E1,2.1254984E1],"tree_param":{"num_deleted":"0","num_feature":"18","num_nodes":"11","size_leaf_vector":"1"}},{"base_weights":[7.24848E-1,1.0471095E0,-2.7293805E-2,-5.295884E-1,1.2483903E0,-2.7282381E-2,1.0686712E-1,1.5363486E0,4.785585E-1,-1.7906763E-2,3.384203E-2,8.755271E-2,9.4196975E-1,-2.7569354E-2,1.7087798E0,-2.7088685E-2,1.7265147E0,2.2308735E-2,1.7212743E0,8.6929604E-2,3.1593684E-2,8.660477E-2,2.4197692E-2],"categories":[],"categories_nodes":[],"categories_segments":[],"categories_sizes":[],"default_left":[0,0,0,0,0,0,0,0,0,0,0,0,0,0,0,0,0,0,0,0,0,0,0],"id":67,"left_children":[1,3,-1,5,7,-1,9,11,13,-1,-1,-1,15,-1,17,-1,19,-1,21,-1,-1,-1,-1],"loss_changes":[5.461074E2,3.3802136E2,0E0,1.2955017E0,2.0830371E2,0E0,1.2535974E0,8.5872925E1,3.2804163E2,0E0,0E0,0E0,2.153095E2,0E0,1.0917053E0,0E0,4.9716187E-1,0E0,7.200012E-1,0E0,0E0,0E0,0E0],"parents":[2147483647,0,0,1,1,3,3,4,4,6,6,7,7,8,8,12,12,14,14,16,16,18,18],"right_children":[2,4,-1,6,8,-1,10,12,14,-1,-1,-1,16,-1,18,-1,20,-1,22,-1,-1,-1,-1],"split_conditions":[7.213937E-1,-1.489136E-1,-2.7293805E-2,-1.5181403E-1,7.2039247E-1,-2.7282381E-2,6.526747E-1,2.1904649E-1,5.4653215E-1,-1.7906763E-2,3.384203E-2,8.755271E-2,4.5015523E-1,-2.7569354E-2,5.5110896E-1,-2.7088685E-2,7.18086E-1,2.2308735E-2,7.18086E-1,8.6929604E-2,3.1593684E-2,8.660477E-2,2.4197692E-2],"split_indices":[6,10,0,10,5,0,11,10,6,0,0,0,6,0,6,0,6,0,6,0,0,0,0],"split_type":[0,0,0,0,0,0,0,0,0,0,0,0,0,0,0,0,0,0,0,0,0,0,0],"sum_hessian":[1.3311819E3,1.0620237E3,2.691582E2,1.2004457E2,9.4197906E2,1.17229294E2,2.815275E0,6.8482306E2,2.5715604E2,1.7550848E0,1.0601902E0,5.016629E2,1.8316016E2,1.4027179E2,1.1688424E2,6.3457607E1,1.1970255E2,1.5050316E0,1.153792E2,1.1781441E2,1.8881419E0,1.13982475E2,1.3967297E0],"tree_param":{"num_deleted":"0","num_feature":"18","num_nodes":"23","size_leaf_vector":"1"}},{"base_weights":[6.75515E-1,-2.7418E-2,1.7249702E0,9.933048E-1,8.6472236E-2,7.371662E-2,1.4796029E-1,-1.7159065E-2,3.2711744E-2],"categories":[],"categories_nodes":[],"categories_segments":[],"categories_sizes":[],"default_left":[0,0,0,0,0,0,0,0,0],"id":68,"left_children":[1,-1,3,5,-1,-1,7,-1,-1],"loss_changes":[1.6798972E3,0E0,5.866699E-1,2.4771533E0,0E0,0E0,1.0986347E0,0E0,0E0],"parents":[2147483647,0,0,2,2,3,3,6,6],"right_children":[2,-1,4,6,-1,-1,8,-1,-1],"split_conditions":[7.18086E-1,-2.7418E-2,7.213937E-1,2.8192103E-1,8.6472236E-2,7.371662E-2,4.9610704E-1,-1.7159065E-2,3.2711744E-2],"split_indices":[6,0,6,9,0,0,15,0,0],"split_type":[0,0,0,0,0,0,0,0,0],"sum_hessian":[1.3061852E3,6.0320496E2,7.029803E2,5.628309E0,6.973519E2,3.1129065E0,2.5154026E0,1.4402992E0,1.0751034E0],"tree_param":{"num_deleted":"0","num_feature":"18","num_nodes":"9","size_leaf_vector":"1"}},{"base_weights":[-4.947647E-2,1.0651397E0,-2.7410371E-2,1.5316802E0,-2.7761418E-2,1.8662585E0,4.8845267E-1,9.379525E-2,8.881716E-1,-2.7206749E-2,1.0123207E-1,3.9975694E-3,6.462997E-2],"categories":[],"categories_nodes":[],"categories_segments":[],"categories_sizes":[],"default_left":[0,0,0,0,0,0,0,0,0,0,0,0,0],"id":69,"left_children":[1,3,-1,5,-1,7,9,-1,11,-1,-1,-1,-1],"loss_changes":[5.6259045E2,2.3736789E2,0E0,8.39718E1,0E0,6.7871094E-2,9.692597E1,0E0,1.1041212E0,0E0,0E0,0E0,0E0],"parents":[2147483647,0,0,1,1,3,3,5,5,6,6,8,8],"right_children":[2,4,-1,6,-1,8,10,-1,12,-1,-1,-1,-1],"split_conditions":[-1.489136E-1,7.213937E-1,-2.7410371E-2,7.234731E-1,-2.7761418E-2,-1.5181403E-1,5.5110896E-1,9.379525E-2,4.3061507E-1,-2.7206749E-2,1.0123207E-1,3.9975694E-3,6.462997E-2],"split_indices":[10,6,0,5,0,10,6,0,16,0,0,0,0],"split_type":[0,0,0,0,0,0,0,0,0,0,0,0,0],"sum_hessian":[1.00999677E3,3.118673E2,6.9812946E2,2.4219005E2,6.967725E1,1.827807E2,5.9409355E1,1.8008664E2,2.6940618E0,3.5914387E1,2.3494967E1,1.2979305E0,1.3961313E0],"tree_param":{"num_deleted":"0","num_feature":"18","num_nodes":"13","size_leaf_vector":"1"}},{"base_weights":[-5.4822165E-1],"categories":[],"categories_nodes":[],"categories_segments":[],"categories_sizes":[],"default_left":[0],"id":70,"left_children":[-1],"loss_changes":[0E0],"parents":[2147483647],"right_children":[-1],"split_conditions":[-2.7411083E-2],"split_indices":[0],"split_type":[0],"sum_hessian":[8.7366284E2],"tree_param":{"num_deleted":"0","num_feature":"18","num_nodes":"1","size_leaf_vector":"1"}},{"base_weights":[-5.48217E-1],"categories":[],"categories_nodes":[],"categories_segments":[],"categories_sizes":[],"default_left":[0],"id":71,"left_children":[-1],"loss_changes":[0E0],"parents":[2147483647],"right_children":[-1],"split_conditions":[-2.741085E-2],"split_indices":[0],"split_type":[0],"sum_hessian":[8.772888E2],"tree_param":{"num_deleted":"0","num_feature":"18","num_nodes":"1","size_leaf_vector":"1"}},{"base_weights":[3.6169197E-3,-2.734819E-2,8.3769345E-1,8.4812075E-2,-2.7377283E-2],"categories":[],"categories_nodes":[],"categories_segments":[],"categories_sizes":[],"default_left":[0,0,0,0,0],"id":72,"left_children":[1,-1,3,-1,-1],"loss_changes":[4.7083505E2,0E0,4.8577966E2,0E0,0E0],"parents":[2147483647,0,0,2,2],"right_children":[2,-1,4,-1,-1],"split_conditions":[2.1904649E-1,-2.734819E-2,4.5015523E-1,8.4812075E-2,-2.7377283E-2],"split_indices":[10,0,6,0,0],"split_type":[0,0,0,0,0],"sum_hessian":[1.0232809E3,6.166015E2,4.0667944E2,2.5093167E2,1.5574777E2],"tree_param":{"num_deleted":"0","num_feature":"18","num_nodes":"5","size_leaf_vector":"1"}},{"base_weights":[-5.464232E-1],"categories":[],"categories_nodes":[],"categories_segments":[],"categories_sizes":[],"default_left":[0],"id":73,"left_children":[-1],"loss_changes":[0E0],"parents":[2147483647],"right_children":[-1],"split_conditions":[-2.732116E-2],"split_indices":[0],"split_type":[0],"sum_hessian":[8.447912E2],"tree_param":{"num_deleted":"0","num_feature":"18","num_nodes":"1","size_leaf_vector":"1"}},{"base_weights":[-5.464164E-1],"categories":[],"categories_nodes":[],"categories_segments":[],"categories_sizes":[],"default_left":[0],"id":74,"left_children":[-1],"loss_changes":[0E0],"parents":[2147483647],"right_children":[-1],"split_conditions":[-2.732082E-2],"split_indices":[0],"split_type":[0],"sum_hessian":[8.4811237E2],"tree_param":{"num_deleted":"0","num_feature":"18","num_nodes":"1","size_leaf_vector":"1"}},{"base_weights":[1.0630235E-1,-2.7309228E-2,8.204657E-1,1.4589719E0,-2.7594794E-2,1.7053208E0,2.6895353E-1,8.548798E-2,2.3051482E-2,-2.69352E-2,8.957713E-2],"categories":[],"categories_nodes":[],"categories_segments":[],"categories_sizes":[],"default_left":[0,0,0,0,0,0,0,0,0,0,0],"id":75,"left_children":[1,-1,3,5,-1,7,9,-1,-1,-1,-1],"loss_changes":[4.9664316E2,0E0,4.4663834E2,1.0141724E2,0E0,8.008423E-1,7.5718025E1,0E0,0E0,0E0,0E0],"parents":[2147483647,0,0,2,2,3,3,5,5,6,6],"right_children":[2,-1,4,6,-1,8,10,-1,-1,-1,-1],"split_conditions":[7.2039247E-1,-2.7309228E-2,5.5110896E-1,2.1904649E-1,-2.7594794E-2,5.4653215E-1,4.4653955E-1,8.548798E-2,2.3051482E-2,-2.69352E-2,8.957713E-2],"split_indices":[5,0,6,10,0,6,6,0,0,0,0],"split_type":[0,0,0,0,0,0,0,0,0,0,0],"sum_hessian":[1.0638368E3,5.5604663E2,5.077902E2,3.4650967E2,1.6128053E2,2.8672162E2,5.978805E1,2.853297E2,1.3918924E0,3.948789E1,2.0300163E1],"tree_param":{"num_deleted":"0","num_feature":"18","num_nodes":"11","size_leaf_vector":"1"}},{"base_weights":[6.9126725E-1,9.850458E-1,-2.7202398E-2,-5.274661E-1,1.1681317E0,-2.7188672E-2,7.981731E-2,1.4254963E0,4.6827337E-1,-1.8404868E-2,3.357741E-2,8.067028E-2,9.004002E-1,-2.7470008E-2,1.584483E0,-2.6987705E-2,7.986038E-2,7.9680674E-2,2.3272298E-2],"categories":[],"categories_nodes":[],"categories_segments":[],"categories_sizes":[],"default_left":[0,0,0,0,0,0,0,0,0,0,0,0,0,0,0,0,0,0,0],"id":76,"left_children":[1,3,-1,5,7,-1,9,11,13,-1,-1,-1,15,-1,17,-1,-1,-1,-1],"loss_changes":[4.9148108E2,3.03359E2,0E0,1.2192574E0,1.7504126E2,0E0,1.3012803E0,6.8874146E1,3.0049933E2,0E0,0E0,0E0,1.9163268E2,0E0,5.461731E-1,0E0,0E0,0E0,0E0],"parents":[2147483647,0,0,1,1,3,3,4,4,6,6,7,7,8,8,12,12,14,14],"right_children":[2,4,-1,6,8,-1,10,12,14,-1,-1,-1,16,-1,18,-1,-1,-1,-1],"split_conditions":[7.213937E-1,-1.489136E-1,-2.7202398E-2,-1.5181403E-1,7.2039247E-1,-2.7188672E-2,6.576043E-1,2.1904649E-1,5.4653215E-1,-1.8404868E-2,3.357741E-2,8.067028E-2,4.5015523E-1,-2.7470008E-2,7.18086E-1,-2.6987705E-2,7.986038E-2,7.9680674E-2,2.3272298E-2],"split_indices":[6,10,0,10,5,0,17,10,6,0,0,0,6,0,6,0,0,0,0],"split_type":[0,0,0,0,0,0,0,0,0,0,0,0,0,0,0,0,0,0,0],"sum_hessian":[1.3518049E3,1.0922518E3,2.595531E2,1.1773519E2,9.7451666E2,1.1475819E2,2.977006E0,7.117443E2,2.6277237E2,1.9095161E0,1.0674899E0,5.22641E2,1.891033E2,1.3771881E2,1.2505354E2,6.1735146E1,1.2736816E2,1.23620804E2,1.4327425E0],"tree_param":{"num_deleted":"0","num_feature":"18","num_nodes":"19","size_leaf_vector":"1"}},{"base_weights":[6.472178E-1,-2.732714E-2,1.5926063E0,7.986489E-1,7.98529E-2,1.1469218E0,-1.6142149E-2,4.4000507E-3,7.598802E-2],"categories":[],"categories_nodes":[],"categories_segments":[],"categories_sizes":[],"default_left":[0,0,0,0,0,0,0,0,0],"id":77,"left_children":[1,-1,3,5,-1,7,-1,-1,-1],"loss_changes":[1.4911614E3,0E0,1.3300781E0,2.7569616E0,0E0,1.7938042E0,0E0,0E0,0E0],"parents":[2147483647,0,0,2,2,3,3,5,5],"right_children":[2,-1,4,6,-1,8,-1,-1,-1],"split_conditions":[7.18086E-1,-2.732714E-2,7.213937E-1,3.110531E-1,7.98529E-2,2.7134544E-1,-1.6142149E-2,4.4000507E-3,7.598802E-2],"split_indices":[6,0,6,10,0,8,0,0,0],"split_type":[0,0,0,0,0,0,0,0,0],"sum_hessian":[1.3195156E3,5.833412E2,7.3617444E2,5.110539E0,7.310639E2,3.8822527E0,1.2282863E0,1.332831E0,2.5494218E0],"tree_param":{"num_deleted":"0","num_feature":"18","num_nodes":"9","size_leaf_vector":"1"}},{"base_weights":[-5.6244697E-2,3.9236042E-1,-4.4580323E-1,-4.6907312E-1,8.5786355E-1,-5.125236E-1,1.23562425E-1,-2.7149586E-2,-1.4712381E-1,1.2337835E0,-2.7522227E-2,-2.7288212E-2,-2.6897576E-1,8.724165E-1,-4.9922973E-1,6.3277555E-1,-2.61188E-2,1.5284879E0,3.9803615E-1,1.0379137E0,-5.176819E-1,1.3488793E0,-2.4249997E-2,-8.729579E-2,-2.6417349E-2,1.0147419E0,-2.025704E-2,1.0480744E0,1.626824E0,-2.7022574E-2,1.604882E0,7.208567E-2,-1.850215E-2,3.134001E-3,-2.6814317E-2,7.734566E-2,3.8306925E-1,-1.5326989E-2,1.01278545E-2,7.181639E-2,-1.755879E-2,7.809451E-2,-2.4338374E-2,8.285025E-2,5.6681037E-2,3.176824E-2,8.578107E-2,-1.9038845E-2,5.9898656E-2],"categories":[],"categories_nodes":[],"categories_segments":[],"categories_sizes":[],"default_left":[0,0,0,0,0,0,0,0,0,0,0,0,0,0,0,0,0,0,0,0,0,0,0,0,0,0,0,0,0,0,0,0,0,0,0,0,0,0,0,0,0,0,0,0,0,0,0,0,0],"id":78,"left_children":[1,3,5,7,9,11,13,-1,15,17,-1,-1,19,21,23,25,-1,27,29,31,33,35,-1,37,-1,39,-1,41,43,-1,45,-1,-1,-1,-1,-1,47,-1,-1,-1,-1,-1,-1,-1,-1,-1,-1,-1,-1],"loss_changes":[1.7458447E2,1.8661938E2,2.0372826E1,3.8124313E0,1.6046873E2,3.7289352E0,2.6964956E1,0E0,9.669812E0,5.8144196E1,0E0,0E0,1.9865536E1,1.7593988E1,3.3400202E-1,4.700213E0,0E0,6.60968E0,7.283233E1,6.1278934E0,5.802374E-1,3.1660118E0,0E0,2.7117592E-1,0E0,5.2227764E0,0E0,2.656083E1,2.6931763E-1,0E0,1.9212418E0,0E0,0E0,0E0,0E0,0E0,3.364872E0,0E0,0E0,0E0,0E0,0E0,0E0,0E0,0E0,0E0,0E0,0E0,0E0],"parents":[2147483647,0,0,1,1,2,2,3,3,4,4,5,5,6,6,8,8,9,9,12,12,13,13,14,14,15,15,17,17,18,18,19,19,20,20,21,21,23,23,25,25,27,27,28,28,30,30,36,36],"right_children":[2,4,6,8,10,12,14,-1,16,18,-1,-1,20,22,24,26,-1,28,30,32,34,36,-1,38,-1,40,-1,42,44,-1,46,-1,-1,-1,-1,-1,48,-1,-1,-1,-1,-1,-1,-1,-1,-1,-1,-1,-1],"split_conditions":[5.4144025E-1,5.248773E-1,7.719729E-1,4.7577998E-1,7.213937E-1,7.1431524E-1,6.452919E-1,-2.7149586E-2,3.6302572E-1,7.2039247E-1,-2.7522227E-2,-2.7288212E-2,5.814062E-1,7.18086E-1,6.678899E-1,6.181509E-1,-2.61188E-2,5.936585E-1,5.5110896E-1,7.026197E-1,3.5991633E-1,7.42818E-1,-2.4249997E-2,5.34698E-1,-2.6417349E-2,7.234731E-1,-2.025704E-2,4.2119947E-1,5.1808804E-1,-2.7022574E-2,5.6427556E-1,7.208567E-2,-1.850215E-2,3.134001E-3,-2.6814317E-2,7.734566E-2,5.3068215E-1,-1.5326989E-2,1.01278545E-2,7.181639E-2,-1.755879E-2,7.809451E-2,-2.4338374E-2,8.285025E-2,5.6681037E-2,3.176824E-2,8.578107E-2,-1.9038845E-2,5.9898656E-2],"split_indices":[3,4,4,4,6,4,3,0,3,5,0,0,3,6,3,6,0,4,6,5,13,5,0,16,0,5,0,3,3,0,4,0,0,0,0,0,6,0,0,0,0,0,0,0,0,0,0,0,0],"split_type":[0,0,0,0,0,0,0,0,0,0,0,0,0,0,0,0,0,0,0,0,0,0,0,0,0,0,0,0,0,0,0,0,0,0,0,0,0,0,0,0,0,0,0,0,0,0,0,0,0],"sum_hessian":[9.970065E2,4.6338156E2,5.3362494E2,1.6255637E2,3.008252E2,4.7774127E2,5.5883648E1,1.3164459E2,3.0911768E1,2.3754199E2,6.3283207E1,4.1927557E2,5.8465725E1,2.5191828E1,3.0691822E1,9.818787E0,2.1092981E1,1.7500291E2,6.253907E1,8.840071E0,4.9625652E1,1.8651358E1,6.54047E0,2.2901504E0,2.840167E1,7.19373E0,2.6250565E0,3.171582E1,1.432871E2,3.5491642E1,2.7047426E1,6.8511868E0,1.9888841E0,1.4678357E0,4.8157818E1,1.4978437E1,3.6729202E0,1.2711134E0,1.0190371E0,5.457686E0,1.736044E0,2.3748095E1,7.9677258E0,1.3280086E2,1.0486243E1,3.4633625E0,2.3584064E1,2.1708338E0,1.5020864E0],"tree_param":{"num_deleted":"0","num_feature":"18","num_nodes":"49","size_leaf_vector":"1"}},{"base_weights":[-5.4642427E-1],"categories":[],"categories_nodes":[],"categories_segments":[],"categories_sizes":[],"default_left":[0],"id":79,"left_children":[-1],"loss_changes":[0E0],"parents":[2147483647],"right_children":[-1],"split_conditions":[-2.7321214E-2],"split_indices":[0],"split_type":[0],"sum_hessian":[8.5459906E2],"tree_param":{"num_deleted":"0","num_feature":"18","num_nodes":"1","size_leaf_vector":"1"}},{"base_weights":[-5.4642624E-1],"categories":[],"categories_nodes":[],"categories_segments":[],"categories_sizes":[],"default_left":[0],"id":80,"left_children":[-1],"loss_changes":[0E0],"parents":[2147483647],"right_children":[-1],"split_conditions":[-2.7321313E-2],"split_indices":[0],"split_type":[0],"sum_hessian":[8.473207E2],"tree_param":{"num_deleted":"0","num_feature":"18","num_nodes":"1","size_leaf_vector":"1"}},{"base_weights":[1.2249366E-2,-2.7258858E-2,8.0514145E-1,7.8534074E-2,-2.7280677E-2],"categories":[],"categories_nodes":[],"categories_segments":[],"categories_sizes":[],"default_left":[0,0,0,0,0],"id":81,"left_children":[1,-1,3,-1,-1],"loss_changes":[4.494885E2,0E0,4.3497357E2,0E0,0E0],"parents":[2147483647,0,0,2,2],"right_children":[2,-1,4,-1,-1],"split_conditions":[2.1904649E-1,-2.7258858E-2,4.5015523E-1,7.8534074E-2,-2.7280677E-2],"split_indices":[10,0,6,0,0],"split_type":[0,0,0,0,0],"sum_hessian":[1.0149974E3,5.9617865E2,4.1881876E2,2.67213E2,1.5160574E2],"tree_param":{"num_deleted":"0","num_feature":"18","num_nodes":"5","size_leaf_vector":"1"}},{"base_weights":[-5.446758E-1],"categories":[],"categories_nodes":[],"categories_segments":[],"categories_sizes":[],"default_left":[0],"id":82,"left_children":[-1],"loss_changes":[0E0],"parents":[2147483647],"right_children":[-1],"split_conditions":[-2.7233792E-2],"split_indices":[0],"split_type":[0],"sum_hessian":[8.247514E2],"tree_param":{"num_deleted":"0","num_feature":"18","num_nodes":"1","size_leaf_vector":"1"}},{"base_weights":[-5.44673E-1],"categories":[],"categories_nodes":[],"categories_segments":[],"categories_sizes":[],"default_left":[0],"id":83,"left_children":[-1],"loss_changes":[0E0],"parents":[2147483647],"right_children":[-1],"split_conditions":[-2.723365E-2],"split_indices":[0],"split_type":[0],"sum_hessian":[8.2908093E2],"tree_param":{"num_deleted":"0","num_feature":"18","num_nodes":"1","size_leaf_vector":"1"}},{"base_weights":[1.0168994E-1,-2.722068E-2,7.834722E-1,1.3691025E0,-2.7484987E-2,7.8856856E-2,2.899808E-1,-2.6780516E-2,8.272506E-2],"categories":[],"categories_nodes":[],"categories_segments":[],"categories_sizes":[],"default_left":[0,0,0,0,0,0,0,0,0],"id":84,"left_children":[1,-1,3,5,-1,-1,7,-1,-1],"loss_changes":[4.6260944E2,0E0,3.9965427E2,7.929956E1,0E0,0E0,6.695271E1,0E0,0E0],"parents":[2147483647,0,0,2,2,3,3,6,6],"right_children":[2,-1,4,6,-1,-1,8,-1,-1],"split_conditions":[7.2039247E-1,-2.722068E-2,5.5110896E-1,2.1904649E-1,-2.7484987E-2,7.8856856E-2,4.5015523E-1,-2.6780516E-2,8.272506E-2],"split_indices":[5,0,6,10,0,0,6,0,0],"split_type":[0,0,0,0,0,0,0,0,0],"sum_hessian":[1.0482189E3,5.3829504E2,5.0992377E2,3.5427313E2,1.5565062E2,2.9662738E2,5.764575E1,3.629391E1,2.135184E1],"tree_param":{"num_deleted":"0","num_feature":"18","num_nodes":"9","size_leaf_vector":"1"}},{"base_weights":[6.6625684E-1,9.4075954E-1,-2.7114311E-2,-2.7099768E-2,1.1072094E0,1.3358679E0,4.7685668E-1,1.4983553E0,8.612325E-1,-2.7362565E-2,1.4712055E0,1.5001384E0,2.3171714E-2,-2.68748E-2,7.4241355E-2,1.9529862E-2,1.4813671E0,3.1194342E-2,7.510938E-2,7.447295E-2,2.2276789E-2],"categories":[],"categories_nodes":[],"categories_segments":[],"categories_sizes":[],"default_left":[0,0,0,0,0,0,0,0,0,0,0,0,0,0,0,0,0,0,0,0,0],"id":85,"left_children":[1,3,-1,-1,5,7,9,11,13,-1,15,17,-1,-1,-1,-1,19,-1,-1,-1,-1],"loss_changes":[4.5434375E2,2.758271E2,0E0,0E0,1.4392224E2,5.542639E1,2.7425037E2,3.1323242E-1,1.6644223E2,0E0,9.2037964E-1,4.1748047E-2,0E0,0E0,0E0,0E0,4.6697998E-1,0E0,0E0,0E0,0E0],"parents":[2147483647,0,0,1,1,4,4,5,5,6,6,7,7,8,8,10,10,11,11,16,16],"right_children":[2,4,-1,-1,6,8,10,12,14,-1,16,18,-1,-1,-1,-1,20,-1,-1,-1,-1],"split_conditions":[7.213937E-1,-1.5181403E-1,-2.7114311E-2,-2.7099768E-2,7.2039247E-1,2.1904649E-1,5.4653215E-1,7.18086E-1,4.5015523E-1,-2.7362565E-2,5.5110896E-1,-1.489136E-1,2.3171714E-2,-2.68748E-2,7.4241355E-2,1.9529862E-2,7.18086E-1,3.1194342E-2,7.510938E-2,7.447295E-2,2.2276789E-2],"split_indices":[6,10,0,0,5,10,6,6,6,0,6,10,0,0,0,0,6,0,0,0,0],"split_type":[0,0,0,0,0,0,0,0,0,0,0,0,0,0,0,0,0,0,0,0,0],"sum_hessian":[1.3670057E3,1.114162E3,2.5284384E2,1.1222175E2,1.0019402E3,7.344145E2,2.6752573E2,5.4550775E2,1.8890672E2,1.3201224E2,1.3551349E2,5.441207E2,1.3870257E0,5.829301E1,1.3061371E2,1.6298572E0,1.3388364E2,1.9821211E0,5.421386E2,1.3241132E2,1.472315E0],"tree_param":{"num_deleted":"0","num_feature":"18","num_nodes":"21","size_leaf_vector":"1"}},{"base_weights":[6.1459994E-1,-2.7239813E-2,1.4808311E0,6.25893E-1,7.428993E-2,-1.8124936E-2,1.0742368E0,6.9161556E-3,6.7757785E-2],"categories":[],"categories_nodes":[],"categories_segments":[],"categories_sizes":[],"default_left":[0,0,0,0,0,0,0,0,0],"id":86,"left_children":[1,-1,3,5,-1,-1,7,-1,-1],"loss_changes":[1.3406473E3,0E0,2.3139648E0,3.1104853E0,0E0,0E0,9.8951674E-1,0E0,0E0],"parents":[2147483647,0,0,2,2,3,3,6,6],"right_children":[2,-1,4,6,-1,-1,8,-1,-1],"split_conditions":[7.18086E-1,-2.7239813E-2,7.213937E-1,4.9610704E-1,7.428993E-2,-1.8124936E-2,4.9447194E-1,6.9161556E-3,6.7757785E-2],"split_indices":[6,0,6,15,0,0,16,0,0],"split_type":[0,0,0,0,0,0,0,0,0],"sum_hessian":[1.333097E3,5.7023895E2,7.6285803E2,5.1404543E0,7.577176E2,1.663866E0,3.4765882E0,1.1471436E0,2.3294446E0],"tree_param":{"num_deleted":"0","num_feature":"18","num_nodes":"9","size_leaf_vector":"1"}},{"base_weights":[-4.8553154E-2,9.6334296E-1,-2.7237574E-2,1.3321116E0,-2.7495017E-2,1.5886965E0,4.912636E-1,7.974951E-2,2.1148892E-2,-2.696289E-2,8.516564E-2],"categories":[],"categories_nodes":[],"categories_segments":[],"categories_sizes":[],"default_left":[0,0,0,0,0,0,0,0,0,0,0],"id":87,"left_children":[1,3,-1,5,-1,7,9,-1,-1,-1,-1],"loss_changes":[4.9605594E2,1.821387E2,0E0,5.5675446E1,0E0,7.930298E-1,7.914393E1,0E0,0E0,0E0,0E0],"parents":[2147483647,0,0,1,1,3,3,5,5,6,6],"right_children":[2,4,-1,6,-1,8,10,-1,-1,-1,-1],"split_conditions":[-1.489136E-1,7.213937E-1,-2.7237574E-2,7.2039247E-1,-2.7495017E-2,7.134604E-1,5.4653215E-1,7.974951E-2,2.1148892E-2,-2.696289E-2,8.516564E-2],"split_indices":[10,6,0,5,0,6,6,0,0,0,0],"split_type":[0,0,0,0,0,0,0,0,0,0,0],"sum_hessian":[9.85915E2,3.240793E2,6.6183563E2,2.6067422E2,6.34051E1,1.9904593E2,6.1628284E1,1.976108E2,1.4351351E0,3.3608444E1,2.801984E1],"tree_param":{"num_deleted":"0","num_feature":"18","num_nodes":"11","size_leaf_vector":"1"}},{"base_weights":[-5.4467636E-1],"categories":[],"categories_nodes":[],"categories_segments":[],"categories_sizes":[],"default_left":[0],"id":88,"left_children":[-1],"loss_changes":[0E0],"parents":[2147483647],"right_children":[-1],"split_conditions":[-2.7233819E-2],"split_indices":[0],"split_type":[0],"sum_hessian":[8.221959E2],"tree_param":{"num_deleted":"0","num_feature":"18","num_nodes":"1","size_leaf_vector":"1"}},{"base_weights":[-5.4468644E-1],"categories":[],"categories_nodes":[],"categories_segments":[],"categories_sizes":[],"default_left":[0],"id":89,"left_children":[-1],"loss_changes":[0E0],"parents":[2147483647],"right_children":[-1],"split_conditions":[-2.7234321E-2],"split_indices":[0],"split_type":[0],"sum_hessian":[8.283766E2],"tree_param":{"num_deleted":"0","num_feature":"18","num_nodes":"1","size_leaf_vector":"1"}},{"base_weights":[1.3171575E-2,-2.7171373E-2,7.724956E-1,7.316054E-2,-2.718108E-2],"categories":[],"categories_nodes":[],"categories_segments":[],"categories_sizes":[],"default_left":[0,0,0,0,0],"id":90,"left_children":[1,-1,3,-1,-1],"loss_changes":[4.2737527E2,0E0,3.8960587E2,0E0,0E0],"parents":[2147483647,0,0,2,2],"right_children":[2,-1,4,-1,-1],"split_conditions":[2.1904649E-1,-2.7171373E-2,4.5015523E-1,7.316054E-2,-2.718108E-2],"split_indices":[10,0,6,0,0],"split_type":[0,0,0,0,0],"sum_hessian":[1.0092131E3,5.8250793E2,4.2670514E2,2.7976773E2,1.4693742E2],"tree_param":{"num_deleted":"0","num_feature":"18","num_nodes":"5","size_leaf_vector":"1"}},{"base_weights":[-5.429752E-1],"categories":[],"categories_nodes":[],"categories_segments":[],"categories_sizes":[],"default_left":[0],"id":91,"left_children":[-1],"loss_changes":[0E0],"parents":[2147483647],"right_children":[-1],"split_conditions":[-2.7148759E-2],"split_indices":[0],"split_type":[0],"sum_hessian":[8.016832E2],"tree_param":{"num_deleted":"0","num_feature":"18","num_nodes":"1","size_leaf_vector":"1"}},{"base_weights":[-5.429672E-1],"categories":[],"categories_nodes":[],"categories_segments":[],"categories_sizes":[],"default_left":[0],"id":92,"left_children":[-1],"loss_changes":[0E0],"parents":[2147483647],"right_children":[-1],"split_conditions":[-2.714836E-2],"split_indices":[0],"split_type":[0],"sum_hessian":[7.9617004E2],"tree_param":{"num_deleted":"0","num_feature":"18","num_nodes":"1","size_leaf_vector":"1"}},{"base_weights":[8.9892566E-2,-2.7134953E-2,7.356248E-1,1.2734689E0,-2.7380986E-2,1.4668221E0,2.682339E-1,7.3571704E-2,5.9832516E-3,-2.669089E-2,7.68744E-2],"categories":[],"categories_nodes":[],"categories_segments":[],"categories_sizes":[],"default_left":[0,0,0,0,0,0,0,0,0,0,0],"id":93,"left_children":[1,-1,3,5,-1,7,9,-1,-1,-1,-1],"loss_changes":[4.227173E2,0E0,3.54102E2,6.9795105E1,0E0,1.7042236E0,6.136991E1,0E0,0E0,0E0,0E0],"parents":[2147483647,0,0,2,2,3,3,5,5,6,6],"right_children":[2,-1,4,6,-1,8,10,-1,-1,-1,-1],"split_conditions":[7.2039247E-1,-2.7134953E-2,5.5110896E-1,2.1904649E-1,-2.7380986E-2,5.4653215E-1,4.5015523E-1,7.3571704E-2,5.9832516E-3,-2.669089E-2,7.68744E-2],"split_indices":[5,0,6,10,0,6,6,0,0,0,0],"split_type":[0,0,0,0,0,0,0,0,0,0,0],"sum_hessian":[1.0328649E3,5.218217E2,5.1104312E2,3.6011597E2,1.5092715E2,3.0163782E2,5.8478134E1,3.0051678E2,1.1210294E0,3.618927E1,2.2288864E1],"tree_param":{"num_deleted":"0","num_feature":"18","num_nodes":"11","size_leaf_vector":"1"}},{"base_weights":[6.367631E-1,8.9124584E-1,-2.702834E-2,-2.7005408E-2,1.0423179E0,1.2521528E0,4.4817737E-1,1.4017874E0,8.0165654E-1,-2.7267445E-2,1.3751564E0,5.3307945E-1,7.021241E-2,-2.6790118E-2,1.3872068E0,1.3847998E0,6.4098635E-3,5.8690786E-2,-1.5292591E-2,6.9878705E-2,2.5498882E-2,1.9180266E-2,6.969931E-2],"categories":[],"categories_nodes":[],"categories_segments":[],"categories_sizes":[],"default_left":[0,0,0,0,0,0,0,0,0,0,0,0,0,0,0,0,0,0,0,0,0,0,0],"id":94,"left_children":[1,3,-1,-1,5,7,9,11,13,-1,15,17,-1,-1,19,21,-1,-1,-1,-1,-1,-1,-1],"loss_changes":[4.1606958E2,2.4727643E2,0E0,0E0,1.2814429E2,5.02666E1,2.5033405E2,4.7180176E-1,1.5143628E2,0E0,1.5117188E0,2.092324E0,0E0,0E0,5.0686646E-1,7.4645996E-1,0E0,0E0,0E0,0E0,0E0,0E0,0E0],"parents":[2147483647,0,0,1,1,4,4,5,5,6,6,7,7,8,8,10,10,11,11,14,14,15,15],"right_children":[2,4,-1,-1,6,8,10,12,14,-1,16,18,-1,-1,20,22,-1,-1,-1,-1,-1,-1,-1],"split_conditions":[7.213937E-1,-1.5181403E-1,-2.702834E-2,-2.7005408E-2,7.2039247E-1,2.1904649E-1,5.4653215E-1,-1.489136E-1,4.5015523E-1,-2.7267445E-2,7.18086E-1,3.8698012E-1,7.021241E-2,-2.6790118E-2,7.18086E-1,5.5110896E-1,6.4098635E-3,5.8690786E-2,-1.5292591E-2,6.9878705E-2,2.5498882E-2,1.9180266E-2,6.969931E-2],"split_indices":[6,10,0,0,5,10,6,10,6,0,6,16,0,0,6,6,0,0,0,0,0,0,0],"split_type":[0,0,0,0,0,0,0,0,0,0,0,0,0,0,0,0,0,0,0,0,0,0,0],"sum_hessian":[1.3860955E3,1.1399381E3,2.4615741E2,1.0858242E2,1.0313557E3,7.613567E2,2.6999896E2,5.6993744E2,1.9141924E2,1.3052034E2,1.3947862E2,2.2245615E0,5.677129E2,5.8312424E1,1.3310681E2,1.3829854E2,1.1800845E0,1.0349418E0,1.1896197E0,1.3096587E2,2.140957E0,1.6461611E0,1.3665237E2],"tree_param":{"num_deleted":"0","num_feature":"18","num_nodes":"23","size_leaf_vector":"1"}},{"base_weights":[5.9333605E-1,-2.7152453E-2,1.3871124E0,7.438985E-1,6.952835E-2,8.690442E-2,6.1263382E-2,-1.8046705E-2,2.853564E-2],"categories":[],"categories_nodes":[],"categories_segments":[],"categories_sizes":[],"default_left":[0,0,0,0,0,0,0,0,0],"id":95,"left_children":[1,-1,3,5,-1,7,-1,-1,-1],"loss_changes":[1.1954358E3,0E0,6.9885254E-1,1.8914402E0,0E0,1.0180017E0,0E0,0E0,0E0],"parents":[2147483647,0,0,2,2,3,3,5,5],"right_children":[2,-1,4,6,-1,8,-1,-1,-1],"split_conditions":[7.18086E-1,-2.7152453E-2,7.213937E-1,5.8750147E-1,6.952835E-2,6.4574784E-1,6.1263382E-2,-1.8046705E-2,2.853564E-2],"split_indices":[6,0,6,0,0,17,0,0,0],"split_type":[0,0,0,0,0,0,0,0,0],"sum_hessian":[1.3234296E3,5.4438855E2,7.79041E2,5.3174047E0,7.7372363E2,2.747724E0,2.5696805E0,1.5587947E0,1.1889294E0],"tree_param":{"num_deleted":"0","num_feature":"18","num_nodes":"9","size_leaf_vector":"1"}},{"base_weights":[-5.2027732E-2,8.9047664E-1,-2.715086E-2,1.2405808E0,-2.7398998E-2,1.4781939E0,4.8588166E-1,7.419655E-2,8.351306E-3,-2.6863823E-2,7.915689E-2],"categories":[],"categories_nodes":[],"categories_segments":[],